{"learner":{"attributes":{},"feature_names":["bill_length_mm","bill_depth_mm","flipper_length_mm","body_mass_g","sex_Female","sex_Male","island_Biscoe","island_Dream","island_Torgersen"],"feature_types":["float","float","float","float","i","i","i","i","i"],"gradient_booster":{"model":{"gbtree_model_param":{"num_parallel_tree":"1","num_trees":"150"},"iteration_indptr":[0,3,6,9,12,15,18,21,24,27,30,33,36,39,42,45,48,51,54,57,60,63,66,69,72,75,78,81,84,87,90,93,96,99,102,105,108,111,114,117,120,123,126,129,132,135,138,141,144,147,150],"tree_info":[0,1,2,0,1,2,0,1,2,0,1,2,0,1,2,0,1,2,0,1,2,0,1,2,0,1,2,0,1,2,0,1,2,0,1,2,0,1,2,0,1,2,0,1,2,0,1,2,0,1,2,0,1,2,0,1,2,0,1,2,0,1,2,0,1,2,0,1,2,0,1,2,0,1,2,0,1,2,0,1,2,0,1,2,0,1,2,0,1,2,0,1,2,0,1,2,0,1,2,0,1,2,0,1,2,0,1,2,0,1,2,0,1,2,0,1,2,0,1,2,0,1,2,0,1,2,0,1,2,0,1,2,0,1,2,0,1,2,0,1,2,0,1,2,0,1,2,0,1,2],"trees":[{"base_weights":[2.3765141E-1,1.410596E0,-6.104929E-1,-7.663455E-9,4.346939E-1,-6.79803E-1,3.1034482E-1,-3.3333337E-1,-7.2067046E-1,-1.956522E-1,2.5714284E-1,-2.2114289E-1,-7.663455E-9],"categories":[],"categories_nodes":[],"categories_segments":[],"categories_sizes":[],"default_left":[0,0,0,0,0,0,0,0,0,0,0,0,0],"id":0,"left_children":[1,3,5,-1,-1,7,-1,9,11,-1,-1,-1,-1],"loss_changes":[1.1946656E2,2.725235E0,8.671518E0,0E0,0E0,7.178898E-1,0E0,3.9751556E0,7.083168E-1,0E0,0E0,0E0,0E0],"parents":[2147483647,0,0,1,1,2,2,5,5,7,7,8,8],"right_children":[2,4,6,-1,-1,8,-1,10,12,-1,-1,-1,-1],"split_conditions":[4.24E1,1.6E1,1E0,-7.663455E-9,4.346939E-1,4.44E1,3.1034482E-1,1.82E1,2.01E1,-1.956522E-1,2.5714284E-1,-2.2114289E-1,-7.663455E-9],"split_indices":[0,1,8,0,0,0,0,1,1,0,0,0,0],"split_type":[0,0,0,0,0,0,0,0,0,0,0,0,0],"sum_hessian":[1.1822221E2,4.9333332E1,6.8888885E1,1.3333333E0,4.7999996E1,6.6666664E1,2.222222E0,7.9999995E0,5.8666664E1,6.666666E0,1.3333333E0,5.733333E1,1.3333333E0],"tree_param":{"num_deleted":"0","num_feature":"9","num_nodes":"13","size_leaf_vector":"1"}},{"base_weights":[-2.9077357E-1,-2.220089E-1,4.6666664E-1,-6.648649E-1,1.3624454E0,-7.663455E-9,-2.1329483E-1,5.454545E-1,4.302439E-1,2.5714284E-1,-7.663455E-9],"categories":[],"categories_nodes":[],"categories_segments":[],"categories_sizes":[],"default_left":[0,0,0,0,0,0,0,0,0,0,0],"id":1,"left_children":[1,-1,3,5,7,-1,-1,9,-1,-1,-1],"loss_changes":[4.0914825E1,0E0,4.6517925E1,6.302757E-1,7.0824814E-1,0E0,0E0,6.233767E-1,0E0,0E0,0E0],"parents":[2147483647,0,0,2,2,3,3,4,4,7,7],"right_children":[2,-1,4,6,8,-1,-1,10,-1,-1,-1],"split_conditions":[1E0,-2.220089E-1,4.24E1,1.69E1,4.44E1,-7.663455E-9,-2.1329483E-1,4.26E1,4.302439E-1,2.5714284E-1,-7.663455E-9],"split_indices":[7,0,0,1,0,0,0,0,0,0,0],"split_type":[0,0,0,0,0,0,0,0,0,0,0],"sum_hessian":[1.1822221E2,7.422222E1,4.3999996E1,1.9555553E1,2.4444443E1,1.3333333E0,1.8222221E1,2.6666665E0,2.1777777E1,1.3333333E0,1.3333333E0],"tree_param":{"num_deleted":"0","num_feature":"9","num_nodes":"11","size_leaf_vector":"1"}},{"base_weights":[5.3122044E-2,-2.2197312E-1,1.3365617E0,4.3958873E-1,-1.6363637E-1],"categories":[],"categories_nodes":[],"categories_segments":[],"categories_sizes":[],"default_left":[0,0,0,0,0],"id":2,"left_children":[1,-1,3,-1,-1],"loss_changes":[1.2233441E2,0E0,1.1917175E1,0E0,0E0],"parents":[2147483647,0,0,2,2],"right_children":[2,-1,4,-1,-1],"split_conditions":[2.08E2,-2.2197312E-1,1.75E1,4.3958873E-1,-1.6363637E-1],"split_indices":[2,0,1,0,0],"split_type":[0,0,0,0,0],"sum_hessian":[1.1822221E2,7.333333E1,4.4888885E1,4.222222E1,2.6666665E0],"tree_param":{"num_deleted":"0","num_feature":"9","num_nodes":"5","size_leaf_vector":"1"}},{"base_weights":[1.8700625E-1,9.6199954E-1,-5.3030074E-1,2.9605103E-1,-1.0132616E-2,-5.9899354E-1,2.3326604E-1,-3.5162354E-1,-1.971793E-1,-1.8380739E-1,4.924232E-1,2.0880958E-1,1.4117144E-2],"categories":[],"categories_nodes":[],"categories_segments":[],"categories_sizes":[],"default_left":[0,0,0,0,0,0,0,0,0,0,0,0,0],"id":3,"left_children":[1,3,5,-1,-1,7,-1,9,-1,-1,11,-1,-1],"loss_changes":[6.519061E1,1.4253082E0,5.952196E0,0E0,0E0,6.1338043E-1,0E0,3.2368102E0,0E0,0E0,3.0286187E-1,0E0,0E0],"parents":[2147483647,0,0,1,1,2,2,5,5,7,7,10,10],"right_children":[2,4,6,-1,-1,8,-1,10,-1,-1,12,-1,-1],"split_conditions":[4.24E1,2.07E2,1E0,2.9605103E-1,-1.0132616E-2,1.97E2,2.3326604E-1,3.95E3,-1.971793E-1,-1.8380739E-1,4.44E1,2.0880958E-1,1.4117144E-2],"split_indices":[0,2,8,0,0,2,0,3,0,0,0,0,0],"split_type":[0,0,0,0,0,0,0,0,0,0,0,0,0],"sum_hessian":[1.1535099E2,5.5282024E1,6.0068966E1,5.3945465E1,1.3365583E0,5.7586346E1,2.482621E0,1.2319998E1,4.5266346E1,9.618921E0,2.7010763E0,1.4673941E0,1.2336822E0],"tree_param":{"num_deleted":"0","num_feature":"9","num_nodes":"13","size_leaf_vector":"1"}},{"base_weights":[-2.4173999E-1,-1.9829202E-1,3.6154777E-1,-5.8151406E-1,9.4441885E-1,1.37220705E-2,-1.8951397E-1,4.290353E-1,2.9543126E-1,2.1130082E-1,-1.13742165E-2],"categories":[],"categories_nodes":[],"categories_segments":[],"categories_sizes":[],"default_left":[0,0,0,0,0,0,0,0,0,0,0],"id":4,"left_children":[1,-1,3,5,7,-1,-1,9,-1,-1,-1],"loss_changes":[2.7716122E1,0E0,2.5388811E1,5.918956E-1,1.6622925E-1,0E0,0E0,5.187381E-1,0E0,0E0,0E0],"parents":[2147483647,0,0,2,2,3,3,4,4,7,7],"right_children":[2,-1,4,6,8,-1,-1,10,-1,-1,-1],"split_conditions":[1E0,-1.9829202E-1,4.24E1,1.69E1,4.44E1,1.37220705E-2,-1.8951397E-1,3.425E3,2.9543126E-1,2.1130082E-1,-1.13742165E-2],"split_indices":[7,0,0,1,0,0,0,3,0,0,0],"split_type":[0,0,0,0,0,0,0,0,0,0,0],"sum_hessian":[1.0764039E2,6.3451443E1,4.4188946E1,1.6880045E1,2.7308899E1,1.25739E0,1.5622655E1,2.8275232E0,2.4481377E1,1.4589738E0,1.3685495E0],"tree_param":{"num_deleted":"0","num_feature":"9","num_nodes":"11","size_leaf_vector":"1"}},{"base_weights":[3.9628163E-2,-1.9854715E-1,9.1997385E-1,2.9920655E-1,-1.4329563E-1],"categories":[],"categories_nodes":[],"categories_segments":[],"categories_sizes":[],"default_left":[0,0,0,0,0],"id":5,"left_children":[1,-1,3,-1,-1],"loss_changes":[7.079971E1,0E0,5.9729805E0,0E0,0E0],"parents":[2147483647,0,0,2,2],"right_children":[2,-1,4,-1,-1],"split_conditions":[2.08E2,-1.9854715E-1,1.75E1,2.9920655E-1,-1.4329563E-1],"split_indices":[2,0,1,0,0],"split_type":[0,0,0,0,0],"sum_hessian":[1.1266567E2,6.284196E1,4.9823715E1,4.748125E1,2.3424656E0],"tree_param":{"num_deleted":"0","num_feature":"9","num_nodes":"5","size_leaf_vector":"1"}},{"base_weights":[1.5996167E-1,7.6701635E-1,-4.7530392E-1,2.3600662E-1,-6.6668144E-3,-5.434922E-1,1.8893163E-1,-2.9856965E-1,-1.814225E-1,-1.6795695E-1,4.2550853E-1,1.7648853E-1,1.424107E-2],"categories":[],"categories_nodes":[],"categories_segments":[],"categories_sizes":[],"default_left":[0,0,0,0,0,0,0,0,0,0,0,0,0],"id":6,"left_children":[1,3,5,-1,-1,7,-1,9,-1,-1,11,-1,-1],"loss_changes":[4.0546078E1,8.506603E-1,4.225337E0,0E0,0E0,5.5560684E-1,0E0,2.4692214E0,0E0,0E0,1.9946766E-1,0E0,0E0],"parents":[2147483647,0,0,1,1,2,2,5,5,7,7,10,10],"right_children":[2,4,6,-1,-1,8,-1,10,-1,-1,12,-1,-1],"split_conditions":[4.24E1,2.07E2,1E0,2.3600662E-1,-6.6668144E-3,1.97E2,1.8893163E-1,3.95E3,-1.814225E-1,-1.6795695E-1,4.44E1,1.7648853E-1,1.424107E-2],"split_indices":[0,2,8,0,0,2,0,3,0,0,0,0,0],"split_type":[0,0,0,0,0,0,0,0,0,0,0,0,0],"sum_hessian":[1.0319411E2,5.2662678E1,5.0531425E1,5.13851E1,1.2775769E0,4.807327E1,2.4581566E0,1.0792235E1,3.7281036E1,8.097146E0,2.6950898E0,1.495106E0,1.199984E0],"tree_param":{"num_deleted":"0","num_feature":"9","num_nodes":"13","size_leaf_vector":"1"}},{"base_weights":[-2.1139465E-1,-1.8284775E-1,3.0667287E-1,-5.2083427E-1,7.56667E-1,2.5867851E-2,-1.7352292E-1,3.471346E-1,2.3704295E-1,1.7235352E-1,-1.25988405E-2],"categories":[],"categories_nodes":[],"categories_segments":[],"categories_sizes":[],"default_left":[0,0,0,0,0,0,0,0,0,0,0],"id":7,"left_children":[1,-1,3,5,7,-1,-1,9,-1,-1,-1],"loss_changes":[1.9509869E1,0E0,1.5801569E1,5.7998705E-1,9.874439E-2,0E0,0E0,3.6385983E-1,0E0,0E0,0E0],"parents":[2147483647,0,0,2,2,3,3,4,4,7,7],"right_children":[2,-1,4,6,8,-1,-1,10,-1,-1,-1],"split_conditions":[1E0,-1.8284775E-1,4.24E1,1.69E1,4.44E1,2.5867851E-2,-1.7352292E-1,3.425E3,2.3704295E-1,1.7235352E-1,-1.25988405E-2],"split_indices":[7,0,0,1,0,0,0,3,0,0,0],"split_type":[0,0,0,0,0,0,0,0,0,0,0],"sum_hessian":[9.269089E1,5.2314476E1,4.0376408E1,1.4166958E1,2.620945E1,1.184135E0,1.2982822E1,2.8396792E0,2.336977E1,1.4916687E0,1.3480105E0],"tree_param":{"num_deleted":"0","num_feature":"9","num_nodes":"11","size_leaf_vector":"1"}},{"base_weights":[3.1361256E-2,-1.8318993E-1,7.367298E-1,2.3957033E-1,-1.299904E-1],"categories":[],"categories_nodes":[],"categories_segments":[],"categories_sizes":[],"default_left":[0,0,0,0,0],"id":8,"left_children":[1,-1,3,-1,-1],"loss_changes":[4.5771133E1,0E0,3.8290882E0,0E0,0E0],"parents":[2147483647,0,0,2,2],"right_children":[2,-1,4,-1,-1],"split_conditions":[2.08E2,-1.8318993E-1,1.75E1,2.3957033E-1,-1.299904E-1],"split_indices":[2,0,1,0,0],"split_type":[0,0,0,0,0],"sum_hessian":[9.908172E1,5.1941364E1,4.7140354E1,4.5075523E1,2.0648293E0],"tree_param":{"num_deleted":"0","num_feature":"9","num_nodes":"5","size_leaf_vector":"1"}},{"base_weights":[1.4327535E-1,6.0934377E-1,-4.9891862E-1,-1.22063056E-1,6.579774E-1,-5.347203E-1,-9.8957956E-2,2.9620826E-1,2.0440666E-1,-2.2531128E-1,-1.6502762E-1,1.0853907E-1,-1.203597E-1,1.5714672E-1,-5.851057E-2,-9.867271E-2,-4.88586E-4],"categories":[],"categories_nodes":[],"categories_segments":[],"categories_sizes":[],"default_left":[0,0,0,0,0,0,0,0,0,0,0,0,0,0,0,0,0],"id":9,"left_children":[1,3,5,-1,7,9,11,13,-1,15,-1,-1,-1,-1,-1,-1,-1],"loss_changes":[2.6886097E1,2.8334045E0,4.8976898E-1,0E0,2.204113E-1,4.0421486E-2,7.496512E-1,6.3881016E-1,0E0,7.661541E-2,0E0,0E0,0E0,0E0,0E0,0E0,0E0],"parents":[2147483647,0,0,1,1,2,2,4,4,5,5,6,6,7,7,9,9],"right_children":[2,4,6,-1,8,10,12,14,-1,16,-1,-1,-1,-1,-1,-1,-1],"split_conditions":[4.33E1,1.48E1,1.97E1,-1.22063056E-1,1.68E1,4.44E1,4.94E1,3.82E1,2.0440666E-1,1.45E1,-1.6502762E-1,1.0853907E-1,-1.203597E-1,1.5714672E-1,-5.851057E-2,-9.867271E-2,-4.88586E-4],"split_indices":[0,1,1,0,1,0,0,0,0,1,0,0,0,0,0,0,0],"split_type":[0,0,0,0,0,0,0,0,0,0,0,0,0,0,0,0,0],"sum_hessian":[8.781231E1,5.091338E1,3.6898926E1,1.9888718E0,4.8924507E1,3.3558105E1,3.340822E0,3.7994585E0,4.512505E1,2.3293507E0,3.1228754E1,1.2453247E0,2.0954974E0,2.5511038E0,1.2483546E0,1.2704979E0,1.0588529E0],"tree_param":{"num_deleted":"0","num_feature":"9","num_nodes":"17","size_leaf_vector":"1"}},{"base_weights":[-1.9020574E-1,-1.7210345E-1,2.737221E-1,-4.7070426E-1,6.4979947E-1,3.684643E-2,-1.6160037E-1,2.877981E-1,2.047144E-1,1.4989126E-1,-1.816851E-2],"categories":[],"categories_nodes":[],"categories_segments":[],"categories_sizes":[],"default_left":[0,0,0,0,0,0,0,0,0,0,0],"id":10,"left_children":[1,-1,3,5,7,-1,-1,9,-1,-1,-1],"loss_changes":[1.404158E1,0E0,1.0383015E1,5.7687783E-1,9.0620995E-2,0E0,0E0,3.0616006E-1,0E0,0E0,0E0],"parents":[2147483647,0,0,2,2,3,3,4,4,7,7],"right_children":[2,-1,4,6,8,-1,-1,10,-1,-1,-1],"split_conditions":[1E0,-1.7210345E-1,4.24E1,1.69E1,4.44E1,3.684643E-2,-1.6160037E-1,4.26E1,2.047144E-1,1.4989126E-1,-1.816851E-2],"split_indices":[7,0,0,1,0,0,0,0,0,0,0],"split_type":[0,0,0,0,0,0,0,0,0,0,0],"sum_hessian":[7.70454E1,4.2050682E1,3.499472E1,1.16609125E1,2.3333807E1,1.1151505E0,1.0545762E1,2.7386837E0,2.0595123E1,1.4330072E0,1.3056763E0],"tree_param":{"num_deleted":"0","num_feature":"9","num_nodes":"11","size_leaf_vector":"1"}},{"base_weights":[2.5213325E-2,-1.725238E-1,6.35082E-1,2.0721292E-1,-1.1866235E-1],"categories":[],"categories_nodes":[],"categories_segments":[],"categories_sizes":[],"default_left":[0,0,0,0,0],"id":11,"left_children":[1,-1,3,-1,-1],"loss_changes":[3.1148748E1,0E0,2.6917286E0,0E0,0E0],"parents":[2147483647,0,0,2,2],"right_children":[2,-1,4,-1,-1],"split_conditions":[2.08E2,-1.725238E-1,1.75E1,2.0721292E-1,-1.1866235E-1],"split_indices":[2,0,1,0,0],"split_type":[0,0,0,0,0],"sum_hessian":[8.30851E1,4.1900024E1,4.1185074E1,3.9388878E1,1.796196E0],"tree_param":{"num_deleted":"0","num_feature":"9","num_nodes":"5","size_leaf_vector":"1"}},{"base_weights":[1.2948468E-1,5.9118396E-1,-4.030699E-1,1.1013751E-1,1.8938959E-1,-4.7311527E-1,1.440098E-1,1.3737828E-1,-1.4311804E-1,-1.636805E-1,-2.1652216E-1,1.3677107E-1,-1.4550577E-1],"categories":[],"categories_nodes":[],"categories_segments":[],"categories_sizes":[],"default_left":[0,0,0,0,0,0,0,0,0,0,0,0,0],"id":12,"left_children":[1,3,5,7,-1,9,-1,-1,-1,-1,11,-1,-1],"loss_changes":[1.8418783E1,7.0254993E-1,2.3877945E0,1.094772E0,0E0,4.931717E-1,0E0,0E0,0E0,0E0,1.8275229E0,0E0,0E0],"parents":[2147483647,0,0,1,1,2,2,3,3,5,5,10,10],"right_children":[2,4,6,8,-1,10,-1,-1,-1,-1,12,-1,-1],"split_conditions":[4.24E1,1.67E1,1E0,3.82E1,1.8938959E-1,1.83E1,1.440098E-1,1.3737828E-1,-1.4311804E-1,-1.636805E-1,4.57E1,1.3677107E-1,-1.4550577E-1],"split_indices":[0,1,8,0,0,1,0,0,0,0,0,0,0],"split_type":[0,0,0,0,0,0,0,0,0,0,0,0,0],"sum_hessian":[7.29405E1,3.901033E1,3.3930172E1,3.2909937E0,3.5719334E1,3.1866837E1,2.0633354E0,2.205092E0,1.0859017E0,2.3969294E1,7.8975434E0,2.0544305E0,5.8431125E0],"tree_param":{"num_deleted":"0","num_feature":"9","num_nodes":"13","size_leaf_vector":"1"}},{"base_weights":[-1.726333E-1,-1.6426979E-1,2.5377777E-1,-4.2882985E-1,5.8453834E-1,3.8416497E-2,-1.5319397E-1,2.72704E-1,1.8435279E-1,1.3928697E-1,-1.4783712E-2],"categories":[],"categories_nodes":[],"categories_segments":[],"categories_sizes":[],"default_left":[0,0,0,0,0,0,0,0,0,0,0],"id":13,"left_children":[1,-1,3,5,7,-1,-1,9,-1,-1,-1],"loss_changes":[1.0337069E1,0E0,7.1433506E0,5.456737E-1,2.8565884E-2,0E0,0E0,2.473034E-1,0E0,0E0,0E0],"parents":[2147483647,0,0,2,2,3,3,4,4,7,7],"right_children":[2,-1,4,6,8,-1,-1,10,-1,-1,-1],"split_conditions":[1E0,-1.6426979E-1,4.24E1,3.25E3,4.44E1,3.8416497E-2,-1.5319397E-1,4.26E1,1.8435279E-1,1.3928697E-1,-1.4783712E-2],"split_indices":[7,0,0,3,0,0,0,0,0,0,0],"split_type":[0,0,0,0,0,0,0,0,0,0,0],"sum_hessian":[6.2787838E1,3.325948E1,2.9528358E1,9.541199E0,1.998716E1,1.1498185E0,8.39138E0,2.6380785E0,1.7349081E1,1.3768544E0,1.261224E0],"tree_param":{"num_deleted":"0","num_feature":"9","num_nodes":"11","size_leaf_vector":"1"}},{"base_weights":[2.0918349E-2,-1.6469027E-1,5.7175446E-1,1.8745019E-1,-1.08058706E-1],"categories":[],"categories_nodes":[],"categories_segments":[],"categories_sizes":[],"default_left":[0,0,0,0,0],"id":14,"left_children":[1,-1,3,-1,-1],"loss_changes":[2.1889545E1,0E0,1.9781704E0,0E0,0E0],"parents":[2147483647,0,0,2,2],"right_children":[2,-1,4,-1,-1],"split_conditions":[2.08E2,-1.6469027E-1,1.75E1,1.8745019E-1,-1.08058706E-1],"split_indices":[2,0,1,0,0],"split_type":[0,0,0,0,0],"sum_hessian":[6.7731224E1,3.3291637E1,3.4439587E1,3.289555E1,1.5440351E0],"tree_param":{"num_deleted":"0","num_feature":"9","num_nodes":"5","size_leaf_vector":"1"}},{"base_weights":[1.21536985E-1,4.9725398E-1,-4.364484E-1,-9.5997885E-2,5.370928E-1,-4.7913072E-1,-4.0863957E-2,1.8513301E-1,5.644031E-1,-5.359288E-2,-1.4875762E-1,8.7184146E-2,-9.599601E-2,1.21606745E-1,-5.8541287E-2,1.7514338E-1,2.3153454E-1,-9.066788E-3,1.0938859E-1],"categories":[],"categories_nodes":[],"categories_segments":[],"categories_sizes":[],"default_left":[0,0,0,0,0,0,0,0,0,0,0,0,0,0,0,0,0,0,0],"id":15,"left_children":[1,3,5,-1,7,9,11,13,15,-1,-1,-1,-1,-1,-1,-1,17,-1,-1],"loss_changes":[1.2791596E1,1.3541183E0,3.9693308E-1,0E0,2.3191166E-1,2.287054E-2,4.1642192E-1,4.1476554E-1,7.149029E-2,0E0,0E0,0E0,0E0,0E0,0E0,0E0,1.3015501E-1,0E0,0E0],"parents":[2147483647,0,0,1,1,2,2,4,4,5,5,6,6,7,7,8,8,16,16],"right_children":[2,4,6,-1,8,10,12,14,16,-1,-1,-1,-1,-1,-1,-1,18,-1,-1],"split_conditions":[4.33E1,1.48E1,1.97E1,-9.5997885E-2,1.68E1,4.44E1,4.94E1,3.82E1,4.24E1,-5.359288E-2,-1.4875762E-1,8.7184146E-2,-9.599601E-2,1.21606745E-1,-5.8541287E-2,1.7514338E-1,1.93E2,-9.066788E-3,1.0938859E-1],"split_indices":[0,1,1,0,1,0,0,0,0,0,0,0,0,0,0,0,2,0,0],"split_type":[0,0,0,0,0,0,0,0,0,0,0,0,0,0,0,0,0,0,0],"sum_hessian":[5.8980423E1,3.531205E1,2.3668373E1,1.3144959E0,3.3997555E1,2.1172709E1,2.4956658E0,3.0082192E0,3.0989336E1,1.7324123E0,1.9440296E1,1.12202E0,1.3736459E0,1.8632215E0,1.1449978E0,2.8569683E1,2.419653E0,1.0761342E0,1.3435187E0],"tree_param":{"num_deleted":"0","num_feature":"9","num_nodes":"19","size_leaf_vector":"1"}},{"base_weights":[-1.591378E-1,-1.5809394E-1,2.3759077E-1,-1.4475085E-1,5.036879E-1,1.998808E-1,1.701705E-1,-1.1258366E-1,1.8865526E-1],"categories":[],"categories_nodes":[],"categories_segments":[],"categories_sizes":[],"default_left":[0,0,0,0,0,0,0,0,0],"id":16,"left_children":[1,-1,3,-1,5,7,-1,-1,-1],"loss_changes":[7.6184278E0,0E0,5.1086473E0,0E0,2.5402355E-1,1.4291877E0,0E0,0E0,0E0],"parents":[2147483647,0,0,2,2,4,4,5,5],"right_children":[2,-1,4,-1,6,8,-1,-1,-1],"split_conditions":[1E0,-1.5809394E-1,4.09E1,-1.4475085E-1,4.44E1,1E0,1.701705E-1,-1.1258366E-1,1.8865526E-1],"split_indices":[7,0,0,0,0,4,0,0,0],"split_type":[0,0,0,0,0,0,0,0,0],"sum_hessian":[5.0346848E1,2.5954153E1,2.4392694E1,6.3622794E0,1.8030416E1,3.8361008E0,1.4194315E1,1.692275E0,2.1438258E0],"tree_param":{"num_deleted":"0","num_feature":"9","num_nodes":"9","size_leaf_vector":"1"}},{"base_weights":[1.603357E-2,-1.5858829E-1,5.27541E-1,1.7384772E-1,-9.732918E-2],"categories":[],"categories_nodes":[],"categories_segments":[],"categories_sizes":[],"default_left":[0,0,0,0,0],"id":17,"left_children":[1,-1,3,-1,-1],"loss_changes":[1.5593708E1,0E0,1.4648886E0,0E0,0E0],"parents":[2147483647,0,0,2,2],"right_children":[2,-1,4,-1,-1],"split_conditions":[2.08E2,-1.5858829E-1,1.75E1,1.7384772E-1,-9.732918E-2],"split_indices":[2,0,1,0,0],"split_type":[0,0,0,0,0],"sum_hessian":[5.3971046E1,2.6122221E1,2.7848825E1,2.6549702E1,1.2991239E0],"tree_param":{"num_deleted":"0","num_feature":"9","num_nodes":"5","size_leaf_vector":"1"}},{"base_weights":[1.1414854E-1,4.616219E-1,-4.076745E-1,-8.57153E-2,5.0001293E-1,-1.6143885E-1,-1.4935267E-1,1.4980076E-1,5.3027636E-1,8.723073E-2,-1.281398E-1,1.0827256E-1,-5.316799E-2,1.652931E-1,2.053366E-1,-6.4923665E-3,9.652346E-2],"categories":[],"categories_nodes":[],"categories_segments":[],"categories_sizes":[],"default_left":[0,0,0,0,0,0,0,0,0,0,0,0,0,0,0,0,0],"id":18,"left_children":[1,3,5,-1,7,9,-1,11,13,-1,-1,-1,-1,-1,15,-1,-1],"loss_changes":[8.981108E0,9.9151945E-1,3.6179113E-1,0E0,2.2259855E-1,9.43347E-1,0E0,3.1667185E-1,6.0655594E-2,0E0,0E0,0E0,0E0,0E0,8.996725E-2,0E0,0E0],"parents":[2147483647,0,0,1,1,2,2,4,4,5,5,7,7,8,8,14,14],"right_children":[2,4,6,-1,8,10,-1,12,14,-1,-1,-1,-1,-1,16,-1,-1],"split_conditions":[4.33E1,1.48E1,4.6E1,-8.57153E-2,1.68E1,1E0,-1.4935267E-1,3.82E1,4.24E1,8.723073E-2,-1.281398E-1,1.0827256E-1,-5.316799E-2,1.652931E-1,1.93E2,-6.4923665E-3,9.652346E-2],"split_indices":[0,1,0,0,1,4,0,0,0,0,0,0,0,0,2,0,0],"split_type":[0,0,0,0,0,0,0,0,0,0,0,0,0,0,0,0,0],"sum_hessian":[4.749402E1,2.857906E1,1.8914959E1,1.0816088E0,2.7497452E1,5.8177934E0,1.3097165E1,2.660436E0,2.4837015E1,2.1182234E0,3.6995702E0,1.5537999E0,1.106636E0,2.2695541E1,2.1414742E0,1.00194E0,1.1395341E0],"tree_param":{"num_deleted":"0","num_feature":"9","num_nodes":"17","size_leaf_vector":"1"}},{"base_weights":[-1.4827675E-1,-1.5311155E-1,2.2479695E-1,-1.3671339E-1,4.695111E-1,1.5879956E-1,1.7481197E-1,-5.7214495E-2,1.1636358E-1],"categories":[],"categories_nodes":[],"categories_segments":[],"categories_sizes":[],"default_left":[0,0,0,0,0,0,0,0,0],"id":19,"left_children":[1,-1,3,-1,5,-1,7,-1,-1],"loss_changes":[5.6684E0,0E0,3.7015963E0,0E0,1.8770385E-1,0E0,3.991602E-1,0E0,0E0],"parents":[2147483647,0,0,2,2,4,4,6,6],"right_children":[2,-1,4,-1,6,-1,8,-1,-1],"split_conditions":[1E0,-1.5311155E-1,4.09E1,-1.3671339E-1,4.075E3,1.5879956E-1,4.61E1,-5.7214495E-2,1.1636358E-1],"split_indices":[7,0,0,0,3,0,0,0,0],"split_type":[0,0,0,0,0,0,0,0,0],"sum_hessian":[4.0111458E1,2.0168474E1,1.9942984E1,5.0467143E0,1.4896269E1,1.1720879E1,3.17539E0,1.2079657E0,1.9674243E0],"tree_param":{"num_deleted":"0","num_feature":"9","num_nodes":"9","size_leaf_vector":"1"}},{"base_weights":[1.2829787E-2,-1.5356705E-1,4.94382E-1,1.6431595E-1,-8.9161925E-2],"categories":[],"categories_nodes":[],"categories_segments":[],"categories_sizes":[],"default_left":[0,0,0,0,0],"id":20,"left_children":[1,-1,3,-1,-1],"loss_changes":[1.1288954E1,0E0,1.1458392E0,0E0,0E0],"parents":[2147483647,0,0,2,2],"right_children":[2,-1,4,-1,-1],"split_conditions":[2.08E2,-1.5356705E-1,1.75E1,1.6431595E-1,-8.9161925E-2],"split_indices":[2,0,1,0,0],"split_type":[0,0,0,0,0],"sum_hessian":[4.2675335E1,2.0392162E1,2.2283173E1,2.1165125E1,1.1180483E0],"tree_param":{"num_deleted":"0","num_feature":"9","num_nodes":"5","size_leaf_vector":"1"}},{"base_weights":[1.0855901E-1,4.3266636E-1,-3.845356E-1,-6.823758E-2,4.985843E-1,-1.3760768E-1,-1.4395969E-1,9.6558906E-2,-1.2387376E-1,1.5884389E-1,4.271259E-2,-1.1882911E-1,8.1225805E-2],"categories":[],"categories_nodes":[],"categories_segments":[],"categories_sizes":[],"default_left":[0,0,0,0,0,0,0,0,0,0,0,0,0],"id":21,"left_children":[1,3,5,7,9,11,-1,-1,-1,-1,-1,-1,-1],"loss_changes":[6.4148946E0,8.285222E-1,3.1145024E-1,6.2742466E-1,1.599536E-1,7.2671807E-1,0E0,0E0,0E0,0E0,0E0,0E0,0E0],"parents":[2147483647,0,0,1,1,2,2,3,3,4,4,5,5],"right_children":[2,4,6,8,10,12,-1,-1,-1,-1,-1,-1,-1],"split_conditions":[4.33E1,1.67E1,4.6E1,3.82E1,4.24E1,1.79E1,-1.4395969E-1,9.6558906E-2,-1.2387376E-1,1.5884389E-1,4.271259E-2,-1.1882911E-1,8.1225805E-2],"split_indices":[0,1,0,0,0,1,0,0,0,0,0,0,0],"split_type":[0,0,0,0,0,0,0,0,0,0,0,0,0],"sum_hessian":[3.809831E1,2.306223E1,1.5036078E1,2.6779053E0,2.0384323E1,4.8686295E0,1.0167449E1,1.2872214E0,1.3906839E0,1.8309816E1,2.0745065E0,2.9998043E0,1.8688251E0],"tree_param":{"num_deleted":"0","num_feature":"9","num_nodes":"13","size_leaf_vector":"1"}},{"base_weights":[-1.3915305E-1,-1.4856946E-1,2.0838116E-1,-1.2898867E-1,4.313684E-1,1.5557297E-1,1.5118879E-1,-1.0123632E-1,1.5427843E-1],"categories":[],"categories_nodes":[],"categories_segments":[],"categories_sizes":[],"default_left":[0,0,0,0,0,0,0,0,0],"id":22,"left_children":[1,-1,3,-1,5,7,-1,-1,-1],"loss_changes":[4.1833053E0,0E0,2.6607199E0,0E0,1.8961382E-1,9.226375E-1,0E0,0E0,0E0],"parents":[2147483647,0,0,2,2,4,4,5,5],"right_children":[2,-1,4,-1,6,8,-1,-1,-1],"split_conditions":[1E0,-1.4856946E-1,4.09E1,-1.2898867E-1,4.44E1,1E0,1.5118879E-1,-1.0123632E-1,1.5427843E-1],"split_indices":[7,0,0,0,0,4,0,0,0],"split_type":[0,0,0,0,0,0,0,0,0],"sum_hessian":[3.1970718E1,1.5581328E1,1.6389389E1,4.0027018E0,1.2386687E1,3.2359433E0,9.150744E0,1.387704E0,1.8482392E0],"tree_param":{"num_deleted":"0","num_feature":"9","num_nodes":"9","size_leaf_vector":"1"}},{"base_weights":[9.938042E-3,-1.4910698E-1,4.6784124E-1,1.5672743E-1,-4.2556528E-2],"categories":[],"categories_nodes":[],"categories_segments":[],"categories_sizes":[],"default_left":[0,0,0,0,0],"id":23,"left_children":[1,-1,3,-1,-1],"loss_changes":[8.256231E0,0E0,6.95632E-1,0E0,0E0],"parents":[2147483647,0,0,2,2],"right_children":[2,-1,4,-1,-1],"split_conditions":[2.08E2,-1.4910698E-1,1.71E1,1.5672743E-1,-4.2556528E-2],"split_indices":[2,0,1,0,0],"split_type":[0,0,0,0,0],"sum_hessian":[3.3564194E1,1.5888274E1,1.7675919E1,1.6354876E1,1.321043E0],"tree_param":{"num_deleted":"0","num_feature":"9","num_nodes":"5","size_leaf_vector":"1"}},{"base_weights":[1.0225399E-1,3.7858307E-1,-4.0931472E-1,-1.3365532E-1,4.650008E-1,-1.3884065E-1,-1.4438109E-1,8.60583E-2,-1.20810844E-1,1.52445E-1,1.6843057E-1,3.0219125E-2,-8.958055E-2,-5.8160435E-2,1.16960175E-1],"categories":[],"categories_nodes":[],"categories_segments":[],"categories_sizes":[],"default_left":[0,0,0,0,0,0,0,0,0,0,0,0,0,0,0],"id":24,"left_children":[1,3,5,7,9,-1,11,-1,-1,-1,13,-1,-1,-1,-1],"loss_changes":[4.5929418E0,9.8747396E-1,9.601629E-2,5.447935E-1,1.4615202E-1,0E0,1.579854E-1,0E0,0E0,0E0,3.801155E-1,0E0,0E0,0E0,0E0],"parents":[2147483647,0,0,1,1,2,2,3,3,4,4,6,6,10,10],"right_children":[2,4,6,8,10,-1,12,-1,-1,-1,14,-1,-1,-1,-1],"split_conditions":[4.44E1,1.67E1,1.89E1,3.82E1,4.24E1,-1.3884065E-1,4.91E1,8.60583E-2,-1.20810844E-1,1.52445E-1,3.625E3,3.0219125E-2,-8.958055E-2,-5.8160435E-2,1.16960175E-1],"split_indices":[0,1,1,0,0,0,0,0,0,0,3,0,0,0,0],"split_type":[0,0,0,0,0,0,0,0,0,0,0,0,0,0,0],"sum_hessian":[3.0394602E1,1.9903486E1,1.0491116E1,2.7942202E0,1.7109266E1,8.107444E0,2.3836713E0,1.0643893E0,1.7298309E0,1.4313341E1,2.795925E0,1.0545151E0,1.3291563E0,1.107846E0,1.6880788E0],"tree_param":{"num_deleted":"0","num_feature":"9","num_nodes":"15","size_leaf_vector":"1"}},{"base_weights":[-1.2899296E-1,-1.4428078E-1,2.0147683E-1,-1.2041836E-1,4.073766E-1,1.4095815E-1,1.14616394E-1,-3.438122E-2,8.7662056E-2],"categories":[],"categories_nodes":[],"categories_segments":[],"categories_sizes":[],"default_left":[0,0,0,0,0,0,0,0,0],"id":25,"left_children":[1,-1,3,-1,5,-1,7,-1,-1],"loss_changes":[3.1651895E0,0E0,1.9398794E0,0E0,1.5035748E-1,0E0,1.6726005E-1,0E0,0E0],"parents":[2147483647,0,0,2,2,4,4,6,6],"right_children":[2,-1,4,-1,6,-1,8,-1,-1],"split_conditions":[1E0,-1.4428078E-1,4.09E1,-1.2041836E-1,4.075E3,1.4095815E-1,4.91E1,-3.438122E-2,8.7662056E-2],"split_indices":[7,0,0,0,3,0,0,0,0],"split_type":[0,0,0,0,0,0,0,0,0],"sum_hessian":[2.5381088E1,1.2070725E1,1.3310363E1,3.1468801E0,1.0163483E1,7.8772964E0,2.2861862E0,1.1528484E0,1.133338E0],"tree_param":{"num_deleted":"0","num_feature":"9","num_nodes":"9","size_leaf_vector":"1"}},{"base_weights":[7.0640924E-3,-1.4480498E-1,4.434503E-1,1.503506E-1,-3.782463E-2],"categories":[],"categories_nodes":[],"categories_segments":[],"categories_sizes":[],"default_left":[0,0,0,0,0],"id":26,"left_children":[1,-1,3,-1,-1],"loss_changes":[6.045543E0,0E0,5.546372E-1,0E0,0E0],"parents":[2147483647,0,0,2,2],"right_children":[2,-1,4,-1,-1],"split_conditions":[2.08E2,-1.4480498E-1,1.71E1,1.503506E-1,-3.782463E-2],"split_indices":[2,0,1,0,0],"split_type":[0,0,0,0,0],"sum_hessian":[2.6285818E1,1.2335664E1,1.3950155E1,1.2775479E1,1.1746763E0],"tree_param":{"num_deleted":"0","num_feature":"9","num_nodes":"5","size_leaf_vector":"1"}},{"base_weights":[9.6859336E-2,3.5950878E-1,-3.9021313E-1,-1.2562963E-1,4.4506714E-1,-1.3339171E-1,-1.347172E-1,2.0806154E-3,-6.1662003E-2,1.469583E-1,1.5686421E-1,-7.994985E-2,1.9465823E-2,-4.068023E-2,1.0355431E-1],"categories":[],"categories_nodes":[],"categories_segments":[],"categories_sizes":[],"default_left":[0,0,0,0,0,0,0,0,0,0,0,0,0,0,0],"id":27,"left_children":[1,3,5,7,9,-1,11,-1,-1,-1,13,-1,-1,-1,-1],"loss_changes":[3.3899179E0,7.625096E-1,7.051313E-2,3.672223E-2,1.1281896E-1,0E0,9.835252E-2,0E0,0E0,0E0,2.3667072E-1,0E0,0E0,0E0,0E0],"parents":[2147483647,0,0,1,1,2,2,3,3,4,4,6,6,10,10],"right_children":[2,4,6,8,10,-1,12,-1,-1,-1,14,-1,-1,-1,-1],"split_conditions":[4.44E1,1.67E1,1.89E1,1.96E2,4.24E1,-1.3339171E-1,4.15E3,2.0806154E-3,-6.1662003E-2,1.469583E-1,1.82E1,-7.994985E-2,1.9465823E-2,-4.068023E-2,1.0355431E-1],"split_indices":[0,1,1,2,0,0,3,0,0,0,1,0,0,0,0],"split_type":[0,0,0,0,0,0,0,0,0,0,0,0,0,0,0],"sum_hessian":[2.4401783E1,1.6023275E1,8.378509E0,2.3319802E0,1.3691295E1,6.296852E0,2.0816565E0,1.2204915E0,1.1114887E0,1.1243992E1,2.447303E0,1.0519747E0,1.0296817E0,1.0682276E0,1.3790755E0],"tree_param":{"num_deleted":"0","num_feature":"9","num_nodes":"15","size_leaf_vector":"1"}},{"base_weights":[-1.17174186E-1,-1.3993542E-1,1.9293666E-1,-1.11751586E-1,3.7842503E-1,1.2563305E-1,1.3747723E-1,-8.892578E-2,1.2737297E-1],"categories":[],"categories_nodes":[],"categories_segments":[],"categories_sizes":[],"default_left":[0,0,0,0,0,0,0,0,0],"id":28,"left_children":[1,-1,3,-1,5,7,-1,-1,-1],"loss_changes":[2.4106262E0,0E0,1.4054495E0,0E0,1.3564444E-1,5.8960015E-1,0E0,0E0,0E0],"parents":[2147483647,0,0,2,2,4,4,5,5],"right_children":[2,-1,4,-1,6,8,-1,-1,-1],"split_conditions":[1E0,-1.3993542E-1,4.09E1,-1.11751586E-1,4.44E1,1E0,1.3747723E-1,-8.892578E-2,1.2737297E-1],"split_indices":[7,0,0,0,0,4,0,0,0],"split_type":[0,0,0,0,0,0,0,0,0],"sum_hessian":[2.04249E1,9.368751E0,1.10561495E1,2.4819484E0,8.574201E0,2.6755831E0,5.8986177E0,1.1128669E0,1.5627162E0],"tree_param":{"num_deleted":"0","num_feature":"9","num_nodes":"9","size_leaf_vector":"1"}},{"base_weights":[2.3155264E-3,-1.4052181E-1,4.1888613E-1,1.4452109E-1,-3.5043422E-2],"categories":[],"categories_nodes":[],"categories_segments":[],"categories_sizes":[],"default_left":[0,0,0,0,0],"id":29,"left_children":[1,-1,3,-1,-1],"loss_changes":[4.4337955E0,0E0,4.60052E-1,0E0,0E0],"parents":[2147483647,0,0,2,2],"right_children":[2,-1,4,-1,-1],"split_conditions":[2.08E2,-1.4052181E-1,1.71E1,1.4452109E-1,-3.5043422E-2],"split_indices":[2,0,1,0,0],"split_type":[0,0,0,0,0],"sum_hessian":[2.0610556E1,9.617932E0,1.0992622E1,9.928491E0,1.0641325E0],"tree_param":{"num_deleted":"0","num_feature":"9","num_nodes":"5","size_leaf_vector":"1"}},{"base_weights":[8.993229E-2,3.364253E-1,-3.6977893E-1,-3.5322398E-2,4.2483908E-1,-3.4045517E-2,-1.2798326E-1,1.4156745E-1,1.4348249E-1,-2.0844446E-2,8.863875E-2],"categories":[],"categories_nodes":[],"categories_segments":[],"categories_sizes":[],"default_left":[0,0,0,0,0,0,0,0,0,0,0],"id":30,"left_children":[1,3,5,-1,7,-1,-1,-1,9,-1,-1],"loss_changes":[2.4688067E0,6.1184156E-1,6.3708305E-2,0E0,9.020758E-2,0E0,0E0,0E0,1.22351766E-1,0E0,0E0],"parents":[2147483647,0,0,1,1,2,2,4,4,8,8],"right_children":[2,4,6,-1,8,-1,-1,-1,10,-1,-1],"split_conditions":[4.44E1,1.67E1,4.6E1,-3.5322398E-2,4.24E1,-3.4045517E-2,-1.2798326E-1,1.4156745E-1,1.84E1,-2.0844446E-2,8.863875E-2],"split_indices":[0,1,0,0,0,0,0,0,1,0,0],"split_type":[0,0,0,0,0,0,0,0,0,0,0],"sum_hessian":[1.968915E1,1.2991439E1,6.6977115E0,2.0629096E0,1.0928529E1,1.7595509E0,4.938161E0,8.782581E0,2.1459482E0,1.1197326E0,1.0262154E0],"tree_param":{"num_deleted":"0","num_feature":"9","num_nodes":"11","size_leaf_vector":"1"}},{"base_weights":[-1.05701916E-1,-1.3544537E-1,1.9090097E-1,-1.0300032E-1,3.6297455E-1,1.2888558E-1,1.3099793E-1,1.1114658E-1,-4.9363203E-2],"categories":[],"categories_nodes":[],"categories_segments":[],"categories_sizes":[],"default_left":[0,0,0,0,0,0,0,0,0],"id":31,"left_children":[1,-1,3,-1,5,7,-1,-1,-1],"loss_changes":[1.87169E0,0E0,1.0506923E0,0E0,8.353591E-2,2.9912043E-1,0E0,0E0,0E0],"parents":[2147483647,0,0,2,2,4,4,5,5],"right_children":[2,-1,4,-1,6,8,-1,-1,-1],"split_conditions":[1E0,-1.3544537E-1,4.09E1,-1.0300032E-1,4.44E1,1.75E1,1.3099793E-1,1.1114658E-1,-4.9363203E-2],"split_indices":[7,0,0,0,0,1,0,0,0],"split_type":[0,0,0,0,0,0,0,0,0],"sum_hessian":[1.6409311E1,7.33542E0,9.073892E0,1.9681419E0,7.1057496E0,2.3593895E0,4.74636E0,1.1499406E0,1.2094489E0],"tree_param":{"num_deleted":"0","num_feature":"9","num_nodes":"9","size_leaf_vector":"1"}},{"base_weights":[-1.1842226E-3,-1.3601583E-1,3.955194E-1,1.385161E-1,-1.197895E-2],"categories":[],"categories_nodes":[],"categories_segments":[],"categories_sizes":[],"default_left":[0,0,0,0,0],"id":32,"left_children":[1,-1,3,-1,-1],"loss_changes":[3.2737026E0,0E0,2.987126E-1,0E0,0E0],"parents":[2147483647,0,0,2,2],"right_children":[2,-1,4,-1,-1],"split_conditions":[2.08E2,-1.3601583E-1,1.69E1,1.385161E-1,-1.197895E-2],"split_indices":[2,0,1,0,0],"split_type":[0,0,0,0,0],"sum_hessian":[1.6249441E1,7.526786E0,8.722655E0,7.5191903E0,1.2034652E0],"tree_param":{"num_deleted":"0","num_feature":"9","num_nodes":"5","size_leaf_vector":"1"}},{"base_weights":[8.317243E-2,3.1247273E-1,-3.4672463E-1,-3.2029316E-2,4.0254512E-1,-1.2193185E-1,-2.6951145E-2,1.3623852E-1,3.839799E-2],"categories":[],"categories_nodes":[],"categories_segments":[],"categories_sizes":[],"default_left":[0,0,0,0,0,0,0,0,0],"id":33,"left_children":[1,3,5,-1,7,-1,-1,-1,-1],"loss_changes":[1.7988435E0,4.8516452E-1,6.226647E-2,0E0,8.1353426E-2,0E0,0E0,0E0,0E0],"parents":[2147483647,0,0,1,1,2,2,4,4],"right_children":[2,4,6,-1,8,-1,-1,-1,-1],"split_conditions":[4.44E1,1.67E1,1.89E1,-3.2029316E-2,4.24E1,-1.2193185E-1,-2.6951145E-2,1.3623852E-1,3.839799E-2],"split_indices":[0,1,1,0,0,0,0,0,0],"split_type":[0,0,0,0,0,0,0,0,0],"sum_hessian":[1.61493E1,1.0709935E1,5.4393654E0,1.8612993E0,8.848636E0,3.941073E0,1.4982923E0,6.898469E0,1.9501672E0],"tree_param":{"num_deleted":"0","num_feature":"9","num_nodes":"9","size_leaf_vector":"1"}},{"base_weights":[-9.675272E-2,-1.3079843E-1,1.8633126E-1,-9.4283015E-2,3.4495324E-1,1.2098222E-1,2.2882652E-2],"categories":[],"categories_nodes":[],"categories_segments":[],"categories_sizes":[],"default_left":[0,0,0,0,0,0,0],"id":34,"left_children":[1,-1,3,-1,5,-1,-1],"loss_changes":[1.4582152E0,0E0,7.847034E-1,0E0,7.805228E-2,0E0,0E0],"parents":[2147483647,0,0,2,2,4,4],"right_children":[2,-1,4,-1,6,-1,-1],"split_conditions":[1E0,-1.3079843E-1,4.09E1,-9.4283015E-2,4.075E3,1.2098222E-1,2.2882652E-2],"split_indices":[7,0,0,0,3,0,0],"split_type":[0,0,0,0,0,0,0],"sum_hessian":[1.3338423E1,5.82168E0,7.5167427E0,1.5725408E0,5.944202E0,4.4724307E0,1.4717711E0],"tree_param":{"num_deleted":"0","num_feature":"9","num_nodes":"7","size_leaf_vector":"1"}},{"base_weights":[-2.7809043E-3,-1.3138442E-1,3.728872E-1,1.3316147E-1,-1.1963543E-2],"categories":[],"categories_nodes":[],"categories_segments":[],"categories_sizes":[],"default_left":[0,0,0,0,0],"id":35,"left_children":[1,-1,3,-1,-1],"loss_changes":[2.4601896E0,0E0,2.5446332E-1,0E0,0E0],"parents":[2147483647,0,0,2,2],"right_children":[2,-1,4,-1,-1],"split_conditions":[2.08E2,-1.3138442E-1,1.69E1,1.3316147E-1,-1.1963543E-2],"split_indices":[2,0,1,0,0],"split_type":[0,0,0,0,0],"sum_hessian":[1.3050077E1,5.969422E0,7.080655E0,5.977355E0,1.1033002E0],"tree_param":{"num_deleted":"0","num_feature":"9","num_nodes":"5","size_leaf_vector":"1"}},{"base_weights":[7.765699E-2,2.9212475E-1,-3.2559288E-1,-2.2698764E-2,3.9037466E-1,-2.1772988E-2,-1.16216786E-1,1.3012184E-1,4.3518312E-2],"categories":[],"categories_nodes":[],"categories_segments":[],"categories_sizes":[],"default_left":[0,0,0,0,0,0,0,0,0],"id":36,"left_children":[1,3,5,-1,7,-1,-1,-1,-1],"loss_changes":[1.3487223E0,3.905146E-1,5.7966888E-2,0E0,2.2674441E-2,0E0,0E0,0E0,0E0],"parents":[2147483647,0,0,1,1,2,2,4,4],"right_children":[2,4,6,-1,8,-1,-1,-1,-1],"split_conditions":[4.44E1,1.68E1,4.6E1,-2.2698764E-2,4.24E1,-2.1772988E-2,-1.16216786E-1,1.3012184E-1,4.3518312E-2],"split_indices":[0,1,0,0,0,0,0,0,0],"split_type":[0,0,0,0,0,0,0,0,0],"sum_hessian":[1.3495251E1,8.989679E0,4.505572E0,1.9436697E0,7.046009E0,1.3112599E0,3.194312E0,5.3348503E0,1.711159E0],"tree_param":{"num_deleted":"0","num_feature":"9","num_nodes":"9","size_leaf_vector":"1"}},{"base_weights":[-8.4809214E-2,-1.2580837E-1,1.7923573E-1,-8.576729E-2,3.1984785E-1,1.1373297E-1,1.9922841E-2],"categories":[],"categories_nodes":[],"categories_segments":[],"categories_sizes":[],"default_left":[0,0,0,0,0,0,0],"id":37,"left_children":[1,-1,3,-1,5,-1,-1],"loss_changes":[1.1491903E0,0E0,5.8168364E-1,0E0,6.8359554E-2,0E0,0E0],"parents":[2147483647,0,0,2,2,4,4],"right_children":[2,-1,4,-1,6,-1,-1],"split_conditions":[1E0,-1.2580837E-1,4.09E1,-8.576729E-2,4.075E3,1.1373297E-1,1.9922841E-2],"split_indices":[7,0,0,0,3,0,0],"split_type":[0,0,0,0,0,0,0],"sum_hessian":[1.1158311E1,4.662535E0,6.4957757E0,1.2680482E0,5.227728E0,3.8350935E0,1.3926342E0],"tree_param":{"num_deleted":"0","num_feature":"9","num_nodes":"7","size_leaf_vector":"1"}},{"base_weights":[-8.1886845E-3,-1.2645677E-1,3.4706435E-1,1.273689E-1,-1.3314974E-2],"categories":[],"categories_nodes":[],"categories_segments":[],"categories_sizes":[],"default_left":[0,0,0,0,0],"id":38,"left_children":[1,-1,3,-1,-1],"loss_changes":[1.8412856E0,0E0,2.2380441E-1,0E0,0E0],"parents":[2147483647,0,0,2,2],"right_children":[2,-1,4,-1,-1],"split_conditions":[2.08E2,-1.2645677E-1,1.69E1,1.273689E-1,-1.3314974E-2],"split_indices":[2,0,1,0,0],"split_type":[0,0,0,0,0],"sum_hessian":[1.0543256E1,4.7870374E0,5.756219E0,4.734323E0,1.0218961E0],"tree_param":{"num_deleted":"0","num_feature":"9","num_nodes":"5","size_leaf_vector":"1"}},{"base_weights":[7.2986595E-2,1.2492067E-1,-1.5418236E-1,-1.2132423E-1,1.08866915E-1,9.465525E-2,-8.3304495E-2],"categories":[],"categories_nodes":[],"categories_segments":[],"categories_sizes":[],"default_left":[0,0,0,0,0,0,0],"id":39,"left_children":[1,-1,3,-1,5,-1,-1],"loss_changes":[1.0334393E0,0E0,5.842627E-1,0E0,4.7016937E-1,0E0,0E0],"parents":[2147483647,0,0,2,2,4,4],"right_children":[2,-1,4,-1,6,-1,-1],"split_conditions":[4.09E1,1.2492067E-1,1.75E1,-1.2132423E-1,4.6E1,9.465525E-2,-8.3304495E-2],"split_indices":[0,0,1,0,0,0,0],"split_type":[0,0,0,0,0,0,0],"sum_hessian":[1.1423989E1,4.216627E0,7.207362E0,3.4182575E0,3.789105E0,2.588851E0,1.2002538E0],"tree_param":{"num_deleted":"0","num_feature":"9","num_nodes":"7","size_leaf_vector":"1"}},{"base_weights":[-7.6939255E-2,-1.2047331E-1,1.6767928E-1,-7.829571E-2,2.946078E-1,1.06499895E-1,1.5988754E-2],"categories":[],"categories_nodes":[],"categories_segments":[],"categories_sizes":[],"default_left":[0,0,0,0,0,0,0],"id":40,"left_children":[1,-1,3,-1,5,-1,-1],"loss_changes":[8.942917E-1,0E0,4.3838966E-1,0E0,6.263089E-2,0E0,0E0],"parents":[2147483647,0,0,2,2,4,4],"right_children":[2,-1,4,-1,6,-1,-1],"split_conditions":[1E0,-1.2047331E-1,4.09E1,-7.829571E-2,4.075E3,1.06499895E-1,1.5988754E-2],"split_indices":[7,0,0,0,3,0,0],"split_type":[0,0,0,0,0,0,0],"sum_hessian":[9.413407E0,3.7693605E0,5.644047E0,1.0481282E0,4.595918E0,3.2991376E0,1.2967808E0],"tree_param":{"num_deleted":"0","num_feature":"9","num_nodes":"7","size_leaf_vector":"1"}},{"base_weights":[-1.0927539E-2,-1.2124114E-1,3.228951E-1,1.2113983E-1,-7.4789706E-3],"categories":[],"categories_nodes":[],"categories_segments":[],"categories_sizes":[],"default_left":[0,0,0,0,0],"id":41,"left_children":[1,-1,3,-1,-1],"loss_changes":[1.398762E0,0E0,1.7276233E-1,0E0,0E0],"parents":[2147483647,0,0,2,2],"right_children":[2,-1,4,-1,-1],"split_conditions":[2.08E2,-1.2124114E-1,1.65E1,1.2113983E-1,-7.4789706E-3],"split_indices":[2,0,1,0,0],"split_type":[0,0,0,0,0],"sum_hessian":[8.662093E0,3.8805547E0,4.7815385E0,3.7486687E0,1.0328697E0],"tree_param":{"num_deleted":"0","num_feature":"9","num_nodes":"5","size_leaf_vector":"1"}},{"base_weights":[7.007464E-2,2.6304302E-1,-2.9155505E-1,-2.5563415E-2,3.482546E-1,-1.02918334E-1,-2.0544231E-2,1.2038499E-1,3.289592E-2],"categories":[],"categories_nodes":[],"categories_segments":[],"categories_sizes":[],"default_left":[0,0,0,0,0,0,0,0,0],"id":42,"left_children":[1,3,5,-1,7,-1,-1,-1,-1],"loss_changes":[8.113487E-1,2.489872E-1,2.404359E-2,0E0,3.3611834E-2,0E0,0E0,0E0,0E0],"parents":[2147483647,0,0,1,1,2,2,4,4],"right_children":[2,4,6,-1,8,-1,-1,-1,-1],"split_conditions":[4.44E1,1.67E1,1.89E1,-2.5563415E-2,4.24E1,-1.02918334E-1,-2.0544231E-2,1.2038499E-1,3.289592E-2],"split_indices":[0,1,1,0,0,0,0,0,0],"split_type":[0,0,0,0,0,0,0,0,0],"sum_hessian":[9.527725E0,6.3903847E0,3.1373405E0,1.2562345E0,5.13415E0,2.1118526E0,1.0254879E0,3.6427438E0,1.4914061E0],"tree_param":{"num_deleted":"0","num_feature":"9","num_nodes":"9","size_leaf_vector":"1"}},{"base_weights":[-6.840796E-2,-1.1425338E-1,1.5576139E-1,-7.042024E-2,1.0754463E-1,-8.414163E-2,4.0303584E-2],"categories":[],"categories_nodes":[],"categories_segments":[],"categories_sizes":[],"default_left":[0,0,0,0,0,0,0],"id":43,"left_children":[1,-1,3,5,-1,-1,-1],"loss_changes":[6.8592006E-1,0E0,2.966302E-1,1.939542E-1,0E0,0E0,0E0],"parents":[2147483647,0,0,2,2,3,3],"right_children":[2,-1,4,6,-1,-1,-1],"split_conditions":[1E0,-1.1425338E-1,4.44E1,1E0,1.0754463E-1,-8.414163E-2,4.0303584E-2],"split_indices":[7,0,0,4,0,0,0],"split_type":[0,0,0,0,0,0,0],"sum_hessian":[7.946469E0,3.0276954E0,4.918773E0,2.6333213E0,2.2854521E0,1.1173757E0,1.5159454E0],"tree_param":{"num_deleted":"0","num_feature":"9","num_nodes":"7","size_leaf_vector":"1"}},{"base_weights":[-1.5627725E-2,-1.1512377E-1,2.9558098E-1,1.1295753E-1,1.3377124E-3],"categories":[],"categories_nodes":[],"categories_segments":[],"categories_sizes":[],"default_left":[0,0,0,0,0],"id":44,"left_children":[1,-1,3,-1,-1],"loss_changes":[1.034999E0,0E0,1.143533E-1,0E0,0E0],"parents":[2147483647,0,0,2,2],"right_children":[2,-1,4,-1,-1],"split_conditions":[2.08E2,-1.1512377E-1,1.63E1,1.1295753E-1,1.3377124E-3],"split_indices":[2,0,1,0,0],"split_type":[0,0,0,0,0],"sum_hessian":[7.0443296E0,3.1203234E0,3.924006E0,2.8407888E0,1.0832173E0],"tree_param":{"num_deleted":"0","num_feature":"9","num_nodes":"5","size_leaf_vector":"1"}},{"base_weights":[6.2447578E-2,1.13277406E-1,-1.3671584E-1,-1.10107236E-1,9.919983E-2,7.799256E-2,-5.3623404E-2],"categories":[],"categories_nodes":[],"categories_segments":[],"categories_sizes":[],"default_left":[0,0,0,0,0,0,0],"id":45,"left_children":[1,-1,3,-1,5,-1,-1],"loss_changes":[6.302134E-1,0E0,3.8320503E-1,0E0,2.2254437E-1,0E0,0E0],"parents":[2147483647,0,0,2,2,4,4],"right_children":[2,-1,4,-1,6,-1,-1],"split_conditions":[4.09E1,1.13277406E-1,1.75E1,-1.10107236E-1,4.57E1,7.799256E-2,-5.3623404E-2],"split_indices":[0,0,1,0,0,0,0],"split_type":[0,0,0,0,0,0,0],"sum_hessian":[8.218349E0,2.8355944E0,5.382755E0,2.442534E0,2.9402208E0,1.9036921E0,1.0365287E0],"tree_param":{"num_deleted":"0","num_feature":"9","num_nodes":"7","size_leaf_vector":"1"}},{"base_weights":[-5.763223E-2,-1.0855259E-1,1.5328956E-1,-3.625948E-2,2.8436205E-1,1.02641046E-1,1.7772121E-2],"categories":[],"categories_nodes":[],"categories_segments":[],"categories_sizes":[],"default_left":[0,0,0,0,0,0,0],"id":46,"left_children":[1,-1,3,-1,5,-1,-1],"loss_changes":[5.589724E-1,0E0,2.2613259E-1,0E0,3.0569077E-2,0E0,0E0],"parents":[2147483647,0,0,2,2,4,4],"right_children":[2,-1,4,-1,6,-1,-1],"split_conditions":[1E0,-1.0855259E-1,4.24E1,-3.625948E-2,4.075E3,1.02641046E-1,1.7772121E-2],"split_indices":[7,0,0,0,3,0,0],"split_type":[0,0,0,0,0,0,0],"sum_hessian":[6.8471146E0,2.510593E0,4.3365216E0,1.4278574E0,2.9086642E0,1.9010075E0,1.0076568E0],"tree_param":{"num_deleted":"0","num_feature":"9","num_nodes":"7","size_leaf_vector":"1"}},{"base_weights":[-1.7931113E-2,-1.0929352E-1,2.7315712E-1,1.0568674E-1,3.7533585E-3],"categories":[],"categories_nodes":[],"categories_segments":[],"categories_sizes":[],"default_left":[0,0,0,0,0],"id":47,"left_children":[1,-1,3,-1,-1],"loss_changes":[7.934835E-1,0E0,8.451626E-2,0E0,0E0],"parents":[2147483647,0,0,2,2],"right_children":[2,-1,4,-1,-1],"split_conditions":[2.08E2,-1.0929352E-1,1.62E1,1.0568674E-1,3.7533585E-3],"split_indices":[2,0,1,0,0],"split_type":[0,0,0,0,0],"sum_hessian":[5.8827496E0,2.5713818E0,3.311368E0,2.2704577E0,1.0409101E0],"tree_param":{"num_deleted":"0","num_feature":"9","num_nodes":"5","size_leaf_vector":"1"}},{"base_weights":[5.745958E-2,1.0696944E-1,-1.2740356E-1,-1.0409263E-1,9.249173E-2,7.327941E-2,-3.752684E-2],"categories":[],"categories_nodes":[],"categories_segments":[],"categories_sizes":[],"default_left":[0,0,0,0,0,0,0],"id":48,"left_children":[1,-1,3,-1,5,-1,-1],"loss_changes":[4.9080557E-1,0E0,3.0802035E-1,0E0,1.5091853E-1,0E0,0E0],"parents":[2147483647,0,0,2,2,4,4],"right_children":[2,-1,4,-1,6,-1,-1],"split_conditions":[4.09E1,1.0696944E-1,1.75E1,-1.0409263E-1,4.44E1,7.327941E-2,-3.752684E-2],"split_indices":[0,0,1,0,0,0,0],"split_type":[0,0,0,0,0,0,0],"sum_hessian":[7.0547943E0,2.3399665E0,4.7148275E0,2.0699801E0,2.6448476E0,1.4857978E0,1.1590499E0],"tree_param":{"num_deleted":"0","num_feature":"9","num_nodes":"7","size_leaf_vector":"1"}},{"base_weights":[-4.786575E-2,-1.0232141E-1,1.4755045E-1,-4.780259E-2,9.672288E-2,3.9875157E-2,-6.042179E-2],"categories":[],"categories_nodes":[],"categories_segments":[],"categories_sizes":[],"default_left":[0,0,0,0,0,0,0],"id":49,"left_children":[1,-1,3,5,-1,-1,-1],"loss_changes":[4.4812408E-1,0E0,1.8156716E-1,1.1471998E-1,0E0,0E0,0E0],"parents":[2147483647,0,0,2,2,3,3],"right_children":[2,-1,4,6,-1,-1,-1],"split_conditions":[1E0,-1.0232141E-1,4.44E1,3.45E3,9.672288E-2,3.9875157E-2,-6.042179E-2],"split_indices":[7,0,0,3,0,0,0],"split_type":[0,0,0,0,0,0,0],"sum_hessian":[5.942737E0,2.0786054E0,3.8641315E0,2.168311E0,1.6958205E0,1.0580963E0,1.1102148E0],"tree_param":{"num_deleted":"0","num_feature":"9","num_nodes":"7","size_leaf_vector":"1"}},{"base_weights":[-2.2030232E-2,-9.689822E-2,8.193723E-2],"categories":[],"categories_nodes":[],"categories_segments":[],"categories_sizes":[],"default_left":[0,0,0],"id":50,"left_children":[1,-1,-1],"loss_changes":[6.144254E-1,0E0,0E0],"parents":[2147483647,0,0],"right_children":[2,-1,-1],"split_conditions":[4.375E3,-9.689822E-2,8.193723E-2],"split_indices":[3,0,0],"split_type":[0,0,0],"sum_hessian":[4.9237127E0,2.3911624E0,2.53255E0],"tree_param":{"num_deleted":"0","num_feature":"9","num_nodes":"3","size_leaf_vector":"1"}},{"base_weights":[5.3668473E-2,1.0096896E-1,-1.1865091E-1,-9.820777E-2,8.823447E-2,6.640892E-2,-3.1973712E-2],"categories":[],"categories_nodes":[],"categories_segments":[],"categories_sizes":[],"default_left":[0,0,0,0,0,0,0],"id":51,"left_children":[1,-1,3,-1,5,-1,-1],"loss_changes":[3.8853937E-1,0E0,2.526995E-1,0E0,1.1153363E-1,0E0,0E0],"parents":[2147483647,0,0,2,2,4,4],"right_children":[2,-1,4,-1,6,-1,-1],"split_conditions":[4.09E1,1.0096896E-1,1.75E1,-9.820777E-2,4.44E1,6.640892E-2,-3.1973712E-2],"split_indices":[0,0,1,0,0,0,0],"split_type":[0,0,0,0,0,0,0],"sum_hessian":[6.1511474E0,1.9676855E0,4.1834617E0,1.7926722E0,2.3907897E0,1.339287E0,1.0515026E0],"tree_param":{"num_deleted":"0","num_feature":"9","num_nodes":"7","size_leaf_vector":"1"}},{"base_weights":[-4.0188428E-2,-9.636564E-2,1.4288007E-1,-2.9326776E-2,7.702233E-2],"categories":[],"categories_nodes":[],"categories_segments":[],"categories_sizes":[],"default_left":[0,0,0,0,0],"id":52,"left_children":[1,-1,3,-1,-1],"loss_changes":[3.6460835E-1,0E0,1.468423E-1,0E0,0E0],"parents":[2147483647,0,0,2,2],"right_children":[2,-1,4,-1,-1],"split_conditions":[1E0,-9.636564E-2,4.24E1,-2.9326776E-2,7.702233E-2],"split_indices":[7,0,0,0,0],"split_type":[0,0,0,0,0],"sum_hessian":[5.194872E0,1.7514956E0,3.4433763E0,1.1514102E0,2.2919662E0],"tree_param":{"num_deleted":"0","num_feature":"9","num_nodes":"5","size_leaf_vector":"1"}},{"base_weights":[-2.5933096E-2,-9.844556E-2,2.3405829E-1,8.6635925E-2,1.7113077E-2],"categories":[],"categories_nodes":[],"categories_segments":[],"categories_sizes":[],"default_left":[0,0,0,0,0],"id":53,"left_children":[1,-1,3,-1,-1],"loss_changes":[4.8531798E-1,0E0,1.625599E-2,0E0,0E0],"parents":[2147483647,0,0,2,2],"right_children":[2,-1,4,-1,-1],"split_conditions":[1E0,-9.844556E-2,1.58E1,8.6635925E-2,1.7113077E-2],"split_indices":[6,0,1,0,0],"split_type":[0,0,0,0,0],"sum_hessian":[4.199047E0,1.8205925E0,2.3784544E0,1.3344519E0,1.0440024E0],"tree_param":{"num_deleted":"0","num_feature":"9","num_nodes":"5","size_leaf_vector":"1"}},{"base_weights":[5.2574366E-2,9.522887E-2,-1.0699043E-1,-9.2795216E-2,8.7885134E-2,-1.0584749E-2,5.0438475E-2],"categories":[],"categories_nodes":[],"categories_segments":[],"categories_sizes":[],"default_left":[0,0,0,0,0,0,0],"id":54,"left_children":[1,-1,3,-1,5,-1,-1],"loss_changes":[3.0677056E-1,0E0,2.1550493E-1,0E0,3.7673973E-2,0E0,0E0],"parents":[2147483647,0,0,2,2,4,4],"right_children":[2,-1,4,-1,6,-1,-1],"split_conditions":[4.09E1,9.522887E-2,1.75E1,-9.2795216E-2,4.075E3,-1.0584749E-2,5.0438475E-2],"split_indices":[0,0,1,0,3,0,0],"split_type":[0,0,0,0,0,0,0],"sum_hessian":[5.4552417E0,1.6789966E0,3.776245E0,1.5645825E0,2.2116628E0,1.093508E0,1.1181546E0],"tree_param":{"num_deleted":"0","num_feature":"9","num_nodes":"7","size_leaf_vector":"1"}},{"base_weights":[-3.759125E-2,-9.067618E-2,1.3233978E-1,-1.1571326E-2,8.58578E-2],"categories":[],"categories_nodes":[],"categories_segments":[],"categories_sizes":[],"default_left":[0,0,0,0,0],"id":55,"left_children":[1,-1,3,-1,-1],"loss_changes":[2.9212475E-1,0E0,1.1909727E-1,0E0,0E0],"parents":[2147483647,0,0,2,2],"right_children":[2,-1,4,-1,-1],"split_conditions":[1E0,-9.067618E-2,4.44E1,-1.1571326E-2,8.58578E-2],"split_indices":[7,0,0,0,0],"split_type":[0,0,0,0,0],"sum_hessian":[4.605956E0,1.4965057E0,3.1094506E0,1.8280355E0,1.281415E0],"tree_param":{"num_deleted":"0","num_feature":"9","num_nodes":"5","size_leaf_vector":"1"}},{"base_weights":[-2.7884036E-2,-9.288348E-2,6.654026E-2],"categories":[],"categories_nodes":[],"categories_segments":[],"categories_sizes":[],"default_left":[0,0,0],"id":56,"left_children":[1,-1,-1],"loss_changes":[3.9320457E-1,0E0,0E0],"parents":[2147483647,0,0],"right_children":[2,-1,-1],"split_conditions":[2.08E2,-9.288348E-2,6.654026E-2],"split_indices":[2,0,0],"split_type":[0,0,0],"sum_hessian":[3.6135633E0,1.5850692E0,2.0284941E0],"tree_param":{"num_deleted":"0","num_feature":"9","num_nodes":"3","size_leaf_vector":"1"}},{"base_weights":[4.8799023E-2,1.6794106E-1,-7.728049E-2,-2.2667592E-2,8.835361E-2],"categories":[],"categories_nodes":[],"categories_segments":[],"categories_sizes":[],"default_left":[0,0,0,0,0],"id":57,"left_children":[1,3,-1,-1,-1],"loss_changes":[2.58741E-1,1.7189713E-1,0E0,0E0,0E0],"parents":[2147483647,0,0,1,1],"right_children":[2,4,-1,-1,-1],"split_conditions":[4.6E1,1.75E1,-7.728049E-2,-2.2667592E-2,8.835361E-2],"split_indices":[0,1,0,0,0],"split_type":[0,0,0,0,0],"sum_hessian":[4.9026957E0,3.8554268E0,1.047269E0,1.4564717E0,2.398955E0],"tree_param":{"num_deleted":"0","num_feature":"9","num_nodes":"5","size_leaf_vector":"1"}},{"base_weights":[-2.9132342E-2,-8.496705E-2,1.2774059E-1,-1.0508807E-2,8.21059E-2],"categories":[],"categories_nodes":[],"categories_segments":[],"categories_sizes":[],"default_left":[0,0,0,0,0],"id":58,"left_children":[1,-1,3,-1,-1],"loss_changes":[2.4227948E-1,0E0,1.01902485E-1,0E0,0E0],"parents":[2147483647,0,0,2,2],"right_children":[2,-1,4,-1,-1],"split_conditions":[1E0,-8.496705E-2,4.44E1,-1.0508807E-2,8.21059E-2],"split_indices":[7,0,0,0,0],"split_type":[0,0,0,0,0],"sum_hessian":[4.1706033E0,1.2845509E0,2.8860524E0,1.7236681E0,1.1623843E0],"tree_param":{"num_deleted":"0","num_feature":"9","num_nodes":"5","size_leaf_vector":"1"}},{"base_weights":[-3.3153336E-2,7.525015E-2,-7.493063E-2],"categories":[],"categories_nodes":[],"categories_segments":[],"categories_sizes":[],"default_left":[0,0,0],"id":59,"left_children":[1,-1,-1],"loss_changes":[3.176196E-1,0E0,0E0],"parents":[2147483647,0,0],"right_children":[2,-1,-1],"split_conditions":[1.65E1,7.525015E-2,-7.493063E-2],"split_indices":[1,0,0],"split_type":[0,0,0],"sum_hessian":[3.1447616E0,1.2924135E0,1.8523481E0],"tree_param":{"num_deleted":"0","num_feature":"9","num_nodes":"3","size_leaf_vector":"1"}},{"base_weights":[4.0181585E-2,8.6106345E-2,-1.0692194E-1,-7.566909E-2,3.4189917E-2],"categories":[],"categories_nodes":[],"categories_segments":[],"categories_sizes":[],"default_left":[0,0,0,0,0],"id":60,"left_children":[1,-1,3,-1,-1],"loss_changes":[2.2927392E-1,0E0,1.6212118E-1,0E0,0E0],"parents":[2147483647,0,0,2,2],"right_children":[2,-1,4,-1,-1],"split_conditions":[4.09E1,8.6106345E-2,1.83E1,-7.566909E-2,3.4189917E-2],"split_indices":[0,0,1,0,0],"split_type":[0,0,0,0,0],"sum_hessian":[4.4690104E0,1.3136151E0,3.1553953E0,1.8177336E0,1.3376616E0],"tree_param":{"num_deleted":"0","num_feature":"9","num_nodes":"5","size_leaf_vector":"1"}},{"base_weights":[-2.2506168E-2,-7.9812095E-2,1.2453554E-1,-1.289232E-2,7.100809E-2],"categories":[],"categories_nodes":[],"categories_segments":[],"categories_sizes":[],"default_left":[0,0,0,0,0],"id":61,"left_children":[1,-1,3,-1,-1],"loss_changes":[2.0459981E-1,0E0,7.9062E-2,0E0,0E0],"parents":[2147483647,0,0,2,2],"right_children":[2,-1,4,-1,-1],"split_conditions":[1E0,-7.9812095E-2,4.33E1,-1.289232E-2,7.100809E-2],"split_indices":[7,0,0,0,0],"split_type":[0,0,0,0,0],"sum_hessian":[3.7883246E0,1.1215315E0,2.666793E0,1.3168689E0,1.3499241E0],"tree_param":{"num_deleted":"0","num_feature":"9","num_nodes":"5","size_leaf_vector":"1"}},{"base_weights":[-2.9587125E-2,-6.994276E-2,7.3088355E-2],"categories":[],"categories_nodes":[],"categories_segments":[],"categories_sizes":[],"default_left":[0,0,0],"id":62,"left_children":[1,-1,-1],"loss_changes":[2.672944E-1,0E0,0E0],"parents":[2147483647,0,0],"right_children":[2,-1,-1],"split_conditions":[2.11E2,-6.994276E-2,7.3088355E-2],"split_indices":[2,0,0],"split_type":[0,0,0],"sum_hessian":[2.7848911E0,1.6799417E0,1.1049495E0],"tree_param":{"num_deleted":"0","num_feature":"9","num_nodes":"3","size_leaf_vector":"1"}},{"base_weights":[3.8433705E-2,8.088937E-2,-9.721388E-2,2.3445414E-2,-8.169201E-2],"categories":[],"categories_nodes":[],"categories_segments":[],"categories_sizes":[],"default_left":[0,0,0,0,0],"id":63,"left_children":[1,-1,3,-1,-1],"loss_changes":[1.8577112E-1,0E0,1.4230472E-1,0E0,0E0],"parents":[2147483647,0,0,2,2],"right_children":[2,-1,4,-1,-1],"split_conditions":[4.09E1,8.088937E-2,1E0,2.3445414E-2,-8.169201E-2],"split_indices":[0,0,4,0,0],"split_type":[0,0,0,0,0],"sum_hessian":[4.087761E0,1.1462911E0,2.94147E0,1.746205E0,1.1952649E0],"tree_param":{"num_deleted":"0","num_feature":"9","num_nodes":"5","size_leaf_vector":"1"}},{"base_weights":[-2.0150362E-2,3.04102E-2,-4.0507063E-2],"categories":[],"categories_nodes":[],"categories_segments":[],"categories_sizes":[],"default_left":[0,0,0],"id":64,"left_children":[1,-1,-1],"loss_changes":[7.616536E-2,0E0,0E0],"parents":[2147483647,0,0],"right_children":[2,-1,-1],"split_conditions":[3.825E3,3.04102E-2,-4.0507063E-2],"split_indices":[3,0,0],"split_type":[0,0,0],"sum_hessian":[3.4758103E0,1.7461894E0,1.729621E0],"tree_param":{"num_deleted":"0","num_feature":"9","num_nodes":"3","size_leaf_vector":"1"}},{"base_weights":[-3.0305404E-2,-7.887239E-2,5.5175725E-2],"categories":[],"categories_nodes":[],"categories_segments":[],"categories_sizes":[],"default_left":[0,0,0],"id":65,"left_children":[1,-1,-1],"loss_changes":[2.2158058E-1,0E0,0E0],"parents":[2147483647,0,0],"right_children":[2,-1,-1],"split_conditions":[1E0,-7.887239E-2,5.5175725E-2],"split_indices":[6,0,0],"split_type":[0,0,0],"sum_hessian":[2.4764137E0,1.0783255E0,1.3980883E0],"tree_param":{"num_deleted":"0","num_feature":"9","num_nodes":"3","size_leaf_vector":"1"}},{"base_weights":[3.7430402E-2,1.653577E-1,-5.6077138E-2,-9.182986E-3,7.598407E-2],"categories":[],"categories_nodes":[],"categories_segments":[],"categories_sizes":[],"default_left":[0,0,0,0,0],"id":66,"left_children":[1,3,-1,-1,-1],"loss_changes":[1.6971637E-1,6.996454E-2,0E0,0E0,0E0],"parents":[2147483647,0,0,1,1],"right_children":[2,4,-1,-1,-1],"split_conditions":[4.44E1,1.75E1,-5.6077138E-2,-9.182986E-3,7.598407E-2],"split_indices":[0,1,0,0,0],"split_type":[0,0,0,0,0],"sum_hessian":[3.8363113E0,2.610665E0,1.2256463E0,1.0104219E0,1.6002433E0],"tree_param":{"num_deleted":"0","num_feature":"9","num_nodes":"5","size_leaf_vector":"1"}},{"base_weights":[-1.8944858E-2,-1.0940474E-1,3.815446E-2,1.8569972E-2,-6.5287635E-2],"categories":[],"categories_nodes":[],"categories_segments":[],"categories_sizes":[],"default_left":[0,0,0,0,0],"id":67,"left_children":[1,3,-1,-1,-1],"loss_changes":[7.042681E-2,7.2389774E-2,0E0,0E0,0E0],"parents":[2147483647,0,0,1,1],"right_children":[2,4,-1,-1,-1],"split_conditions":[4.6E1,3.55E3,3.815446E-2,1.8569972E-2,-6.5287635E-2],"split_indices":[0,3,0,0,0],"split_type":[0,0,0,0,0],"sum_hessian":[3.275237E0,2.1781492E0,1.0970879E0,1.009002E0,1.1691473E0],"tree_param":{"num_deleted":"0","num_feature":"9","num_nodes":"5","size_leaf_vector":"1"}},{"base_weights":[-3.0520262E-2,-7.0257165E-2,5.45012E-2],"categories":[],"categories_nodes":[],"categories_segments":[],"categories_sizes":[],"default_left":[0,0,0],"id":68,"left_children":[1,-1,-1],"loss_changes":[1.8418974E-1,0E0,0E0],"parents":[2147483647,0,0],"right_children":[2,-1,-1],"split_conditions":[4.375E3,-7.0257165E-2,5.45012E-2],"split_indices":[3,0,0],"split_type":[0,0,0],"sum_hessian":[2.2775126E0,1.109187E0,1.1683255E0],"tree_param":{"num_deleted":"0","num_feature":"9","num_nodes":"3","size_leaf_vector":"1"}},{"base_weights":[3.0931104E-2,1.4763793E-1,-5.1357202E-2,7.841208E-2,-2.723888E-3],"categories":[],"categories_nodes":[],"categories_segments":[],"categories_sizes":[],"default_left":[0,0,0,0,0],"id":69,"left_children":[1,3,-1,-1,-1],"loss_changes":[1.3326928E-1,6.367637E-2,0E0,0E0,0E0],"parents":[2147483647,0,0,1,1],"right_children":[2,4,-1,-1,-1],"split_conditions":[4.44E1,1E0,-5.1357202E-2,7.841208E-2,-2.723888E-3],"split_indices":[0,4,0,0,0],"split_type":[0,0,0,0,0],"sum_hessian":[3.5781968E0,2.4392896E0,1.1389072E0,1.026512E0,1.4127775E0],"tree_param":{"num_deleted":"0","num_feature":"9","num_nodes":"5","size_leaf_vector":"1"}},{"base_weights":[-1.3510627E-2,-9.457359E-2,3.470583E-2,1.3641585E-2,-5.7244625E-2],"categories":[],"categories_nodes":[],"categories_segments":[],"categories_sizes":[],"default_left":[0,0,0,0,0],"id":70,"left_children":[1,3,-1,-1,-1],"loss_changes":[5.37277E-2,4.9927454E-2,0E0,0E0,0E0],"parents":[2147483647,0,0,1,1],"right_children":[2,4,-1,-1,-1],"split_conditions":[4.6E1,3.6E3,3.470583E-2,1.3641585E-2,-5.7244625E-2],"split_indices":[0,3,0,0,0],"split_type":[0,0,0,0,0],"sum_hessian":[3.085417E0,2.0605419E0,1.0248752E0,1.0541409E0,1.0064011E0],"tree_param":{"num_deleted":"0","num_feature":"9","num_nodes":"5","size_leaf_vector":"1"}},{"base_weights":[-2.77875E-2,5.166358E-2,-6.5217026E-2],"categories":[],"categories_nodes":[],"categories_segments":[],"categories_sizes":[],"default_left":[0,0,0],"id":71,"left_children":[1,-1,-1],"loss_changes":[1.553607E-1,0E0,0E0],"parents":[2147483647,0,0],"right_children":[2,-1,-1],"split_conditions":[1.71E1,5.166358E-2,-6.5217026E-2],"split_indices":[1,0,0],"split_type":[0,0,0],"sum_hessian":[2.1097643E0,1.0713687E0,1.0383956E0],"tree_param":{"num_deleted":"0","num_feature":"9","num_nodes":"3","size_leaf_vector":"1"}},{"base_weights":[2.7548952E-2,5.538418E-2,-3.4914013E-2],"categories":[],"categories_nodes":[],"categories_segments":[],"categories_sizes":[],"default_left":[0,0,0],"id":72,"left_children":[1,-1,-1],"loss_changes":[1.203747E-1,0E0,0E0],"parents":[2147483647,0,0],"right_children":[2,-1,-1],"split_conditions":[4.24E1,5.538418E-2,-3.4914013E-2],"split_indices":[0,0,0],"split_type":[0,0,0],"sum_hessian":[3.374433E0,1.4784143E0,1.8960187E0],"tree_param":{"num_deleted":"0","num_feature":"9","num_nodes":"3","size_leaf_vector":"1"}},{"base_weights":[-1.127581E-2,2.3476373E-2,-3.736116E-2],"categories":[],"categories_nodes":[],"categories_segments":[],"categories_sizes":[],"default_left":[0,0,0],"id":73,"left_children":[1,-1,-1],"loss_changes":[4.9594995E-2,0E0,0E0],"parents":[2147483647,0,0],"right_children":[2,-1,-1],"split_conditions":[4.075E3,2.3476373E-2,-3.736116E-2],"split_indices":[3,0,0],"split_type":[0,0,0],"sum_hessian":[2.92979E0,1.8089436E0,1.1208464E0],"tree_param":{"num_deleted":"0","num_feature":"9","num_nodes":"3","size_leaf_vector":"1"}},{"base_weights":[-2.5613436E-2],"categories":[],"categories_nodes":[],"categories_segments":[],"categories_sizes":[],"default_left":[0],"id":74,"left_children":[-1],"loss_changes":[0E0],"parents":[2147483647],"right_children":[-1],"split_conditions":[-7.684031E-3],"split_indices":[0],"split_type":[0],"sum_hessian":[1.9751328E0],"tree_param":{"num_deleted":"0","num_feature":"9","num_nodes":"1","size_leaf_vector":"1"}},{"base_weights":[2.7065214E-2,1.3610676E-1,-4.933757E-2,6.013756E-2,4.8643746E-3],"categories":[],"categories_nodes":[],"categories_segments":[],"categories_sizes":[],"default_left":[0,0,0,0,0],"id":75,"left_children":[1,3,-1,-1,-1],"loss_changes":[1.1192582E-1,2.2050012E-2,0E0,0E0,0E0],"parents":[2147483647,0,0,1,1],"right_children":[2,4,-1,-1,-1],"split_conditions":[2E2,1E0,-4.933757E-2,6.013756E-2,4.8643746E-3],"split_indices":[2,4,0,0,0],"split_type":[0,0,0,0,0],"sum_hessian":[3.2875738E0,2.2792568E0,1.008317E0,1.045889E0,1.2333679E0],"tree_param":{"num_deleted":"0","num_feature":"9","num_nodes":"5","size_leaf_vector":"1"}},{"base_weights":[-1.0255295E-2,2.6225807E-2,-3.2580554E-2],"categories":[],"categories_nodes":[],"categories_segments":[],"categories_sizes":[],"default_left":[0,0,0],"id":76,"left_children":[1,-1,-1],"loss_changes":[4.657614E-2,0E0,0E0],"parents":[2147483647,0,0],"right_children":[2,-1,-1],"split_conditions":[3.825E3,2.6225807E-2,-3.2580554E-2],"split_indices":[3,0,0],"split_type":[0,0,0],"sum_hessian":[2.8603344E0,1.4908144E0,1.3695201E0],"tree_param":{"num_deleted":"0","num_feature":"9","num_nodes":"3","size_leaf_vector":"1"}},{"base_weights":[-2.6092911E-2],"categories":[],"categories_nodes":[],"categories_segments":[],"categories_sizes":[],"default_left":[0],"id":77,"left_children":[-1],"loss_changes":[0E0],"parents":[2147483647],"right_children":[-1],"split_conditions":[-7.827873E-3],"split_indices":[0],"split_type":[0],"sum_hessian":[1.9301523E0],"tree_param":{"num_deleted":"0","num_feature":"9","num_nodes":"1","size_leaf_vector":"1"}},{"base_weights":[2.5529517E-2,5.2200478E-2,-3.347555E-2],"categories":[],"categories_nodes":[],"categories_segments":[],"categories_sizes":[],"default_left":[0,0,0],"id":78,"left_children":[1,-1,-1],"loss_changes":[1.04977064E-1,0E0,0E0],"parents":[2147483647,0,0],"right_children":[2,-1,-1],"split_conditions":[4.24E1,5.2200478E-2,-3.347555E-2],"split_indices":[0,0,0],"split_type":[0,0,0],"sum_hessian":[3.2028847E0,1.4085933E0,1.7942914E0],"tree_param":{"num_deleted":"0","num_feature":"9","num_nodes":"3","size_leaf_vector":"1"}},{"base_weights":[-6.661451E-3,2.2129986E-2,-3.2877762E-2],"categories":[],"categories_nodes":[],"categories_segments":[],"categories_sizes":[],"default_left":[0,0,0],"id":79,"left_children":[1,-1,-1],"loss_changes":[3.956517E-2,0E0,0E0],"parents":[2147483647,0,0],"right_children":[2,-1,-1],"split_conditions":[4.075E3,2.2129986E-2,-3.2877762E-2],"split_indices":[3,0,0],"split_type":[0,0,0],"sum_hessian":[2.8027074E0,1.7323934E0,1.0703142E0],"tree_param":{"num_deleted":"0","num_feature":"9","num_nodes":"3","size_leaf_vector":"1"}},{"base_weights":[-2.8441306E-2],"categories":[],"categories_nodes":[],"categories_segments":[],"categories_sizes":[],"default_left":[0],"id":80,"left_children":[-1],"loss_changes":[0E0],"parents":[2147483647],"right_children":[-1],"split_conditions":[-8.532392E-3],"split_indices":[0],"split_type":[0],"sum_hessian":[1.8819759E0],"tree_param":{"num_deleted":"0","num_feature":"9","num_nodes":"1","size_leaf_vector":"1"}},{"base_weights":[2.5141422E-2,4.9396805E-2,-3.107597E-2],"categories":[],"categories_nodes":[],"categories_segments":[],"categories_sizes":[],"default_left":[0,0,0],"id":81,"left_children":[1,-1,-1],"loss_changes":[9.1183856E-2,0E0,0E0],"parents":[2147483647,0,0],"right_children":[2,-1,-1],"split_conditions":[4.24E1,4.9396805E-2,-3.107597E-2],"split_indices":[0,0,0],"split_type":[0,0,0],"sum_hessian":[3.1275084E0,1.3669338E0,1.7605747E0],"tree_param":{"num_deleted":"0","num_feature":"9","num_nodes":"3","size_leaf_vector":"1"}},{"base_weights":[-6.0419715E-3,2.1775478E-2,-3.169512E-2],"categories":[],"categories_nodes":[],"categories_segments":[],"categories_sizes":[],"default_left":[0,0,0],"id":82,"left_children":[1,-1,-1],"loss_changes":[3.698276E-2,0E0,0E0],"parents":[2147483647,0,0],"right_children":[2,-1,-1],"split_conditions":[4.075E3,2.1775478E-2,-3.169512E-2],"split_indices":[3,0,0],"split_type":[0,0,0],"sum_hessian":[2.742914E0,1.6845192E0,1.0583948E0],"tree_param":{"num_deleted":"0","num_feature":"9","num_nodes":"3","size_leaf_vector":"1"}},{"base_weights":[-2.853974E-2],"categories":[],"categories_nodes":[],"categories_segments":[],"categories_sizes":[],"default_left":[0],"id":83,"left_children":[-1],"loss_changes":[0E0],"parents":[2147483647],"right_children":[-1],"split_conditions":[-8.561922E-3],"split_indices":[0],"split_type":[0],"sum_hessian":[1.8436121E0],"tree_param":{"num_deleted":"0","num_feature":"9","num_nodes":"1","size_leaf_vector":"1"}},{"base_weights":[2.471188E-2,1.2534818E-1,-4.1610595E-2,5.2666143E-3,5.1174674E-2],"categories":[],"categories_nodes":[],"categories_segments":[],"categories_sizes":[],"default_left":[0,0,0,0,0],"id":84,"left_children":[1,3,-1,-1,-1],"loss_changes":[8.4161535E-2,1.1819296E-2,0E0,0E0,0E0],"parents":[2147483647,0,0,1,1],"right_children":[2,4,-1,-1,-1],"split_conditions":[1.98E2,1.82E1,-4.1610595E-2,5.2666143E-3,5.1174674E-2],"split_indices":[2,1,0,0,0],"split_type":[0,0,0,0,0],"sum_hessian":[3.0604444E0,2.0381913E0,1.0222532E0,1.0127966E0,1.0253946E0],"tree_param":{"num_deleted":"0","num_feature":"9","num_nodes":"5","size_leaf_vector":"1"}},{"base_weights":[-5.415789E-3,2.4181562E-2,-2.7915373E-2],"categories":[],"categories_nodes":[],"categories_segments":[],"categories_sizes":[],"default_left":[0,0,0],"id":85,"left_children":[1,-1,-1],"loss_changes":[3.531002E-2,0E0,0E0],"parents":[2147483647,0,0],"right_children":[2,-1,-1],"split_conditions":[3.825E3,2.4181562E-2,-2.7915373E-2],"split_indices":[3,0,0],"split_type":[0,0,0],"sum_hessian":[2.6890156E0,1.3974912E0,1.2915245E0],"tree_param":{"num_deleted":"0","num_feature":"9","num_nodes":"3","size_leaf_vector":"1"}},{"base_weights":[-2.8607035E-2],"categories":[],"categories_nodes":[],"categories_segments":[],"categories_sizes":[],"default_left":[0],"id":86,"left_children":[-1],"loss_changes":[0E0],"parents":[2147483647],"right_children":[-1],"split_conditions":[-8.5821105E-3],"split_indices":[0],"split_type":[0],"sum_hessian":[1.8092176E0],"tree_param":{"num_deleted":"0","num_feature":"9","num_nodes":"1","size_leaf_vector":"1"}},{"base_weights":[2.3378937E-2,4.6759788E-2,-2.9902747E-2],"categories":[],"categories_nodes":[],"categories_segments":[],"categories_sizes":[],"default_left":[0,0,0],"id":87,"left_children":[1,-1,-1],"loss_changes":[8.072626E-2,0E0,0E0],"parents":[2147483647,0,0],"right_children":[2,-1,-1],"split_conditions":[4.24E1,4.6759788E-2,-2.9902747E-2],"split_indices":[0,0,0],"split_type":[0,0,0],"sum_hessian":[2.9986234E0,1.3155724E0,1.6830511E0],"tree_param":{"num_deleted":"0","num_feature":"9","num_nodes":"3","size_leaf_vector":"1"}},{"base_weights":[-2.6734613E-3,-2.178437E-2,2.6879655E-2],"categories":[],"categories_nodes":[],"categories_segments":[],"categories_sizes":[],"default_left":[0,0,0],"id":88,"left_children":[1,-1,-1],"loss_changes":[3.0047422E-2,0E0,0E0],"parents":[2147483647,0,0],"right_children":[2,-1,-1],"split_conditions":[4.56E1,-2.178437E-2,2.6879655E-2],"split_indices":[0,0,0],"split_type":[0,0,0],"sum_hessian":[2.6477532E0,1.6273134E0,1.0204399E0],"tree_param":{"num_deleted":"0","num_feature":"9","num_nodes":"3","size_leaf_vector":"1"}},{"base_weights":[-3.0202834E-2],"categories":[],"categories_nodes":[],"categories_segments":[],"categories_sizes":[],"default_left":[0],"id":89,"left_children":[-1],"loss_changes":[0E0],"parents":[2147483647],"right_children":[-1],"split_conditions":[-9.06085E-3],"split_indices":[0],"split_type":[0],"sum_hessian":[1.7723324E0],"tree_param":{"num_deleted":"0","num_feature":"9","num_nodes":"1","size_leaf_vector":"1"}},{"base_weights":[1.8892014E-2,-3.528571E-2,3.8187236E-2],"categories":[],"categories_nodes":[],"categories_segments":[],"categories_sizes":[],"default_left":[0,0,0],"id":90,"left_children":[1,-1,-1],"loss_changes":[7.307878E-2,0E0,0E0],"parents":[2147483647,0,0],"right_children":[2,-1,-1],"split_conditions":[1.75E1,-3.528571E-2,3.8187236E-2],"split_indices":[1,0,0],"split_type":[0,0,0],"sum_hessian":[2.926775E0,1.257763E0,1.669012E0],"tree_param":{"num_deleted":"0","num_feature":"9","num_nodes":"3","size_leaf_vector":"1"}},{"base_weights":[-7.0018554E-4,2.5609462E-2,-2.7053392E-2],"categories":[],"categories_nodes":[],"categories_segments":[],"categories_sizes":[],"default_left":[0,0,0],"id":91,"left_children":[1,-1,-1],"loss_changes":[3.5389505E-2,0E0,0E0],"parents":[2147483647,0,0],"right_children":[2,-1,-1],"split_conditions":[3.825E3,2.5609462E-2,-2.7053392E-2],"split_indices":[3,0,0],"split_type":[0,0,0],"sum_hessian":[2.59587E0,1.3465979E0,1.2492721E0],"tree_param":{"num_deleted":"0","num_feature":"9","num_nodes":"3","size_leaf_vector":"1"}},{"base_weights":[-2.6054095E-2],"categories":[],"categories_nodes":[],"categories_segments":[],"categories_sizes":[],"default_left":[0],"id":92,"left_children":[-1],"loss_changes":[0E0],"parents":[2147483647],"right_children":[-1],"split_conditions":[-7.816229E-3],"split_indices":[0],"split_type":[0],"sum_hessian":[1.7507018E0],"tree_param":{"num_deleted":"0","num_feature":"9","num_nodes":"1","size_leaf_vector":"1"}},{"base_weights":[1.7229717E-2,4.3476284E-2,-2.959741E-2],"categories":[],"categories_nodes":[],"categories_segments":[],"categories_sizes":[],"default_left":[0,0,0],"id":93,"left_children":[1,-1,-1],"loss_changes":[7.175977E-2,0E0,0E0],"parents":[2147483647,0,0],"right_children":[2,-1,-1],"split_conditions":[4.24E1,4.3476284E-2,-2.959741E-2],"split_indices":[0,0,0],"split_type":[0,0,0],"sum_hessian":[2.8831422E0,1.2525204E0,1.6306218E0],"tree_param":{"num_deleted":"0","num_feature":"9","num_nodes":"3","size_leaf_vector":"1"}},{"base_weights":[1.498616E-3,2.1682998E-2,-2.693772E-2],"categories":[],"categories_nodes":[],"categories_segments":[],"categories_sizes":[],"default_left":[0,0,0],"id":94,"left_children":[1,-1,-1],"loss_changes":[2.9568223E-2,0E0,0E0],"parents":[2147483647,0,0],"right_children":[2,-1,-1],"split_conditions":[4.075E3,2.1682998E-2,-2.693772E-2],"split_indices":[3,0,0],"split_type":[0,0,0],"sum_hessian":[2.5717237E0,1.565935E0,1.0057887E0],"tree_param":{"num_deleted":"0","num_feature":"9","num_nodes":"3","size_leaf_vector":"1"}},{"base_weights":[-2.6614456E-2],"categories":[],"categories_nodes":[],"categories_segments":[],"categories_sizes":[],"default_left":[0],"id":95,"left_children":[-1],"loss_changes":[0E0],"parents":[2147483647],"right_children":[-1],"split_conditions":[-7.984337E-3],"split_indices":[0],"split_type":[0],"sum_hessian":[1.714911E0],"tree_param":{"num_deleted":"0","num_feature":"9","num_nodes":"1","size_leaf_vector":"1"}},{"base_weights":[1.7766101E-2,3.6790624E-2,-3.254524E-2],"categories":[],"categories_nodes":[],"categories_segments":[],"categories_sizes":[],"default_left":[0,0,0],"id":96,"left_children":[1,-1,-1],"loss_changes":[6.401953E-2,0E0,0E0],"parents":[2147483647,0,0],"right_children":[2,-1,-1],"split_conditions":[4.33E1,3.6790624E-2,-3.254524E-2],"split_indices":[0,0,0],"split_type":[0,0,0],"sum_hessian":[2.8305433E0,1.5618392E0,1.2687042E0],"tree_param":{"num_deleted":"0","num_feature":"9","num_nodes":"3","size_leaf_vector":"1"}},{"base_weights":[1.1972656E-3,2.2891995E-2,-2.3211576E-2],"categories":[],"categories_nodes":[],"categories_segments":[],"categories_sizes":[],"default_left":[0,0,0],"id":97,"left_children":[1,-1,-1],"loss_changes":[2.6726667E-2,0E0,0E0],"parents":[2147483647,0,0],"right_children":[2,-1,-1],"split_conditions":[3.825E3,2.2891995E-2,-2.3211576E-2],"split_indices":[3,0,0],"split_type":[0,0,0],"sum_hessian":[2.5284996E0,1.3074347E0,1.2210648E0],"tree_param":{"num_deleted":"0","num_feature":"9","num_nodes":"3","size_leaf_vector":"1"}},{"base_weights":[-2.6889317E-2],"categories":[],"categories_nodes":[],"categories_segments":[],"categories_sizes":[],"default_left":[0],"id":98,"left_children":[-1],"loss_changes":[0E0],"parents":[2147483647],"right_children":[-1],"split_conditions":[-8.066796E-3],"split_indices":[0],"split_type":[0],"sum_hessian":[1.6880153E0],"tree_param":{"num_deleted":"0","num_feature":"9","num_nodes":"1","size_leaf_vector":"1"}},{"base_weights":[1.6344279E-2,-3.3068024E-2,3.5609134E-2],"categories":[],"categories_nodes":[],"categories_segments":[],"categories_sizes":[],"default_left":[0,0,0],"id":99,"left_children":[1,-1,-1],"loss_changes":[6.2085144E-2,0E0,0E0],"parents":[2147483647,0,0],"right_children":[2,-1,-1],"split_conditions":[1.75E1,-3.3068024E-2,3.5609134E-2],"split_indices":[1,0,0],"split_type":[0,0,0],"sum_hessian":[2.7824714E0,1.2096595E0,1.5728118E0],"tree_param":{"num_deleted":"0","num_feature":"9","num_nodes":"3","size_leaf_vector":"1"}},{"base_weights":[2.8734654E-3,2.2629973E-2,-2.2107689E-2],"categories":[],"categories_nodes":[],"categories_segments":[],"categories_sizes":[],"default_left":[0,0,0],"id":100,"left_children":[1,-1,-1],"loss_changes":[2.4951408E-2,0E0,0E0],"parents":[2147483647,0,0],"right_children":[2,-1,-1],"split_conditions":[3.825E3,2.2629973E-2,-2.2107689E-2],"split_indices":[3,0,0],"split_type":[0,0,0],"sum_hessian":[2.490636E0,1.2863656E0,1.2042705E0],"tree_param":{"num_deleted":"0","num_feature":"9","num_nodes":"3","size_leaf_vector":"1"}},{"base_weights":[-2.6959416E-2],"categories":[],"categories_nodes":[],"categories_segments":[],"categories_sizes":[],"default_left":[0],"id":101,"left_children":[-1],"loss_changes":[0E0],"parents":[2147483647],"right_children":[-1],"split_conditions":[-8.087825E-3],"split_indices":[0],"split_type":[0],"sum_hessian":[1.6651803E0],"tree_param":{"num_deleted":"0","num_feature":"9","num_nodes":"1","size_leaf_vector":"1"}},{"base_weights":[1.4939798E-2,4.1399594E-2,-2.7962625E-2],"categories":[],"categories_nodes":[],"categories_segments":[],"categories_sizes":[],"default_left":[0,0,0],"id":102,"left_children":[1,-1,-1],"loss_changes":[6.273439E-2,0E0,0E0],"parents":[2147483647,0,0],"right_children":[2,-1,-1],"split_conditions":[4.17E1,4.1399594E-2,-2.7962625E-2],"split_indices":[0,0,0],"split_type":[0,0,0],"sum_hessian":[2.7473195E0,1.1559687E0,1.5913508E0],"tree_param":{"num_deleted":"0","num_feature":"9","num_nodes":"3","size_leaf_vector":"1"}},{"base_weights":[4.4006654E-3,-1.9586502E-2,2.5457252E-2],"categories":[],"categories_nodes":[],"categories_segments":[],"categories_sizes":[],"default_left":[0,0,0],"id":103,"left_children":[1,-1,-1],"loss_changes":[2.5017098E-2,0E0,0E0],"parents":[2147483647,0,0],"right_children":[2,-1,-1],"split_conditions":[4.52E1,-1.9586502E-2,2.5457252E-2],"split_indices":[0,0,0],"split_type":[0,0,0],"sum_hessian":[2.473702E0,1.4265778E0,1.047124E0],"tree_param":{"num_deleted":"0","num_feature":"9","num_nodes":"3","size_leaf_vector":"1"}},{"base_weights":[-2.7052877E-2],"categories":[],"categories_nodes":[],"categories_segments":[],"categories_sizes":[],"default_left":[0],"id":104,"left_children":[-1],"loss_changes":[0E0],"parents":[2147483647],"right_children":[-1],"split_conditions":[-8.115863E-3],"split_indices":[0],"split_type":[0],"sum_hessian":[1.6345763E0],"tree_param":{"num_deleted":"0","num_feature":"9","num_nodes":"1","size_leaf_vector":"1"}},{"base_weights":[1.1920009E-2,-3.207821E-2,3.310502E-2],"categories":[],"categories_nodes":[],"categories_segments":[],"categories_sizes":[],"default_left":[0,0,0],"id":105,"left_children":[1,-1,-1],"loss_changes":[5.4956764E-2,0E0,0E0],"parents":[2147483647,0,0],"right_children":[2,-1,-1],"split_conditions":[1.75E1,-3.207821E-2,3.310502E-2],"split_indices":[1,0,0],"split_type":[0,0,0],"sum_hessian":[2.689243E0,1.1791607E0,1.5100822E0],"tree_param":{"num_deleted":"0","num_feature":"9","num_nodes":"3","size_leaf_vector":"1"}},{"base_weights":[5.0946767E-3,2.2921136E-2,-2.1213176E-2],"categories":[],"categories_nodes":[],"categories_segments":[],"categories_sizes":[],"default_left":[0,0,0],"id":106,"left_children":[1,-1,-1],"loss_changes":[2.3954127E-2,0E0,0E0],"parents":[2147483647,0,0],"right_children":[2,-1,-1],"split_conditions":[3.825E3,2.2921136E-2,-2.1213176E-2],"split_indices":[3,0,0],"split_type":[0,0,0],"sum_hessian":[2.4319136E0,1.2490509E0,1.1828628E0],"tree_param":{"num_deleted":"0","num_feature":"9","num_nodes":"3","size_leaf_vector":"1"}},{"base_weights":[-2.346741E-2],"categories":[],"categories_nodes":[],"categories_segments":[],"categories_sizes":[],"default_left":[0],"id":107,"left_children":[-1],"loss_changes":[0E0],"parents":[2147483647],"right_children":[-1],"split_conditions":[-7.0402236E-3],"split_indices":[0],"split_type":[0],"sum_hessian":[1.6190001E0],"tree_param":{"num_deleted":"0","num_feature":"9","num_nodes":"1","size_leaf_vector":"1"}},{"base_weights":[1.1201342E-2,3.8879212E-2,-2.7424563E-2],"categories":[],"categories_nodes":[],"categories_segments":[],"categories_sizes":[],"default_left":[0,0,0],"id":108,"left_children":[1,-1,-1],"loss_changes":[5.6296546E-2,0E0,0E0],"parents":[2147483647,0,0],"right_children":[2,-1,-1],"split_conditions":[4.17E1,3.8879212E-2,-2.7424563E-2],"split_indices":[0,0,0],"split_type":[0,0,0],"sum_hessian":[2.6585681E0,1.1122999E0,1.5462682E0],"tree_param":{"num_deleted":"0","num_feature":"9","num_nodes":"3","size_leaf_vector":"1"}},{"base_weights":[6.1387317E-3,-1.7861651E-2,2.3971142E-2],"categories":[],"categories_nodes":[],"categories_segments":[],"categories_sizes":[],"default_left":[0,0,0],"id":109,"left_children":[1,-1,-1],"loss_changes":[2.1312684E-2,0E0,0E0],"parents":[2147483647,0,0],"right_children":[2,-1,-1],"split_conditions":[4.52E1,-1.7861651E-2,2.3971142E-2],"split_indices":[0,0,0],"split_type":[0,0,0],"sum_hessian":[2.417192E0,1.3807153E0,1.0364767E0],"tree_param":{"num_deleted":"0","num_feature":"9","num_nodes":"3","size_leaf_vector":"1"}},{"base_weights":[-2.3912003E-2],"categories":[],"categories_nodes":[],"categories_segments":[],"categories_sizes":[],"default_left":[0],"id":110,"left_children":[-1],"loss_changes":[0E0],"parents":[2147483647],"right_children":[-1],"split_conditions":[-7.173601E-3],"split_indices":[0],"split_type":[0],"sum_hessian":[1.5910486E0],"tree_param":{"num_deleted":"0","num_feature":"9","num_nodes":"1","size_leaf_vector":"1"}},{"base_weights":[8.8192765E-3,-3.0953823E-2,3.0990751E-2],"categories":[],"categories_nodes":[],"categories_segments":[],"categories_sizes":[],"default_left":[0,0,0],"id":111,"left_children":[1,-1,-1],"loss_changes":[4.882285E-2,0E0,0E0],"parents":[2147483647,0,0],"right_children":[2,-1,-1],"split_conditions":[1.75E1,-3.0953823E-2,3.0990751E-2],"split_indices":[1,0,0],"split_type":[0,0,0],"sum_hessian":[2.6065178E0,1.1505901E0,1.4559276E0],"tree_param":{"num_deleted":"0","num_feature":"9","num_nodes":"3","size_leaf_vector":"1"}},{"base_weights":[6.447577E-3,2.2937953E-2,-2.0457856E-2],"categories":[],"categories_nodes":[],"categories_segments":[],"categories_sizes":[],"default_left":[0,0,0],"id":112,"left_children":[1,-1,-1],"loss_changes":[2.2877151E-2,0E0,0E0],"parents":[2147483647,0,0],"right_children":[2,-1,-1],"split_conditions":[3.825E3,2.2937953E-2,-2.0457856E-2],"split_indices":[3,0,0],"split_type":[0,0,0],"sum_hessian":[2.3800225E0,1.2155079E0,1.1645147E0],"tree_param":{"num_deleted":"0","num_feature":"9","num_nodes":"3","size_leaf_vector":"1"}},{"base_weights":[-2.0793991E-2],"categories":[],"categories_nodes":[],"categories_segments":[],"categories_sizes":[],"default_left":[0],"id":113,"left_children":[-1],"loss_changes":[0E0],"parents":[2147483647],"right_children":[-1],"split_conditions":[-6.2381974E-3],"split_indices":[0],"split_type":[0],"sum_hessian":[1.5777134E0],"tree_param":{"num_deleted":"0","num_feature":"9","num_nodes":"1","size_leaf_vector":"1"}},{"base_weights":[8.578421E-3,3.2476533E-2,-3.1480808E-2],"categories":[],"categories_nodes":[],"categories_segments":[],"categories_sizes":[],"default_left":[0,0,0],"id":114,"left_children":[1,-1,-1],"loss_changes":[5.1862042E-2,0E0,0E0],"parents":[2147483647,0,0],"right_children":[2,-1,-1],"split_conditions":[4.33E1,3.2476533E-2,-3.1480808E-2],"split_indices":[0,0,0],"split_type":[0,0,0],"sum_hessian":[2.5795934E0,1.3981841E0,1.1814092E0],"tree_param":{"num_deleted":"0","num_feature":"9","num_nodes":"3","size_leaf_vector":"1"}},{"base_weights":[7.157837E-3,-1.8852215E-2,2.0495484E-2],"categories":[],"categories_nodes":[],"categories_segments":[],"categories_sizes":[],"default_left":[0,0,0],"id":115,"left_children":[1,-1,-1],"loss_changes":[1.8708361E-2,0E0,0E0],"parents":[2147483647,0,0],"right_children":[2,-1,-1],"split_conditions":[4.35E1,-1.8852215E-2,2.0495484E-2],"split_indices":[0,0,0],"split_type":[0,0,0],"sum_hessian":[2.3671372E0,1.0910032E0,1.276134E0],"tree_param":{"num_deleted":"0","num_feature":"9","num_nodes":"3","size_leaf_vector":"1"}},{"base_weights":[-2.1476591E-2],"categories":[],"categories_nodes":[],"categories_segments":[],"categories_sizes":[],"default_left":[0],"id":116,"left_children":[-1],"loss_changes":[0E0],"parents":[2147483647],"right_children":[-1],"split_conditions":[-6.4429776E-3],"split_indices":[0],"split_type":[0],"sum_hessian":[1.5520276E0],"tree_param":{"num_deleted":"0","num_feature":"9","num_nodes":"1","size_leaf_vector":"1"}},{"base_weights":[5.962687E-3,-3.0115185E-2,2.939525E-2],"categories":[],"categories_nodes":[],"categories_segments":[],"categories_sizes":[],"default_left":[0,0,0],"id":117,"left_children":[1,-1,-1],"loss_changes":[4.4401947E-2,0E0,0E0],"parents":[2147483647,0,0],"right_children":[2,-1,-1],"split_conditions":[1.75E1,-3.0115185E-2,2.939525E-2],"split_indices":[1,0,0],"split_type":[0,0,0],"sum_hessian":[2.5321167E0,1.1324737E0,1.3996431E0],"tree_param":{"num_deleted":"0","num_feature":"9","num_nodes":"3","size_leaf_vector":"1"}},{"base_weights":[7.555559E-3,2.1860147E-2,-2.0966435E-2],"categories":[],"categories_nodes":[],"categories_segments":[],"categories_sizes":[],"default_left":[0,0,0],"id":118,"left_children":[1,-1,-1],"loss_changes":[2.1955043E-2,0E0,0E0],"parents":[2147483647,0,0],"right_children":[2,-1,-1],"split_conditions":[3.975E3,2.1860147E-2,-2.0966435E-2],"split_indices":[3,0,0],"split_type":[0,0,0],"sum_hessian":[2.333846E0,1.2981527E0,1.0356935E0],"tree_param":{"num_deleted":"0","num_feature":"9","num_nodes":"3","size_leaf_vector":"1"}},{"base_weights":[-1.819629E-2],"categories":[],"categories_nodes":[],"categories_segments":[],"categories_sizes":[],"default_left":[0],"id":119,"left_children":[-1],"loss_changes":[0E0],"parents":[2147483647],"right_children":[-1],"split_conditions":[-5.458887E-3],"split_indices":[0],"split_type":[0],"sum_hessian":[1.5415443E0],"tree_param":{"num_deleted":"0","num_feature":"9","num_nodes":"1","size_leaf_vector":"1"}},{"base_weights":[6.4188633E-3,3.5131548E-2,-2.6470507E-2],"categories":[],"categories_nodes":[],"categories_segments":[],"categories_sizes":[],"default_left":[0,0,0],"id":120,"left_children":[1,-1,-1],"loss_changes":[4.709335E-2,0E0,0E0],"parents":[2147483647,0,0],"right_children":[2,-1,-1],"split_conditions":[4.17E1,3.5131548E-2,-2.6470507E-2],"split_indices":[0,0,0],"split_type":[0,0,0],"sum_hessian":[2.508731E0,1.0470909E0,1.46164E0],"tree_param":{"num_deleted":"0","num_feature":"9","num_nodes":"3","size_leaf_vector":"1"}},{"base_weights":[7.6285247E-3,1.9730495E-2,-1.8548416E-2],"categories":[],"categories_nodes":[],"categories_segments":[],"categories_sizes":[],"default_left":[0,0,0],"id":121,"left_children":[1,-1,-1],"loss_changes":[1.7481107E-2,0E0,0E0],"parents":[2147483647,0,0],"right_children":[2,-1,-1],"split_conditions":[3.975E3,1.9730495E-2,-1.8548416E-2],"split_indices":[3,0,0],"split_type":[0,0,0],"sum_hessian":[2.3219774E0,1.2928649E0,1.0291126E0],"tree_param":{"num_deleted":"0","num_feature":"9","num_nodes":"3","size_leaf_vector":"1"}},{"base_weights":[-1.9018289E-2],"categories":[],"categories_nodes":[],"categories_segments":[],"categories_sizes":[],"default_left":[0],"id":122,"left_children":[-1],"loss_changes":[0E0],"parents":[2147483647],"right_children":[-1],"split_conditions":[-5.705487E-3],"split_indices":[0],"split_type":[0],"sum_hessian":[1.5167401E0],"tree_param":{"num_deleted":"0","num_feature":"9","num_nodes":"1","size_leaf_vector":"1"}},{"base_weights":[7.957916E-3,3.3641484E-2,-2.4576206E-2],"categories":[],"categories_nodes":[],"categories_segments":[],"categories_sizes":[],"default_left":[0,0,0],"id":123,"left_children":[1,-1,-1],"loss_changes":[4.1725103E-2,0E0,0E0],"parents":[2147483647,0,0],"right_children":[2,-1,-1],"split_conditions":[4.17E1,3.3641484E-2,-2.4576206E-2],"split_indices":[0,0,0],"split_type":[0,0,0],"sum_hessian":[2.4750211E0,1.0316029E0,1.4434184E0],"tree_param":{"num_deleted":"0","num_feature":"9","num_nodes":"3","size_leaf_vector":"1"}},{"base_weights":[6.8594967E-3,2.0249011E-2,-1.732784E-2],"categories":[],"categories_nodes":[],"categories_segments":[],"categories_sizes":[],"default_left":[0,0,0],"id":124,"left_children":[1,-1,-1],"loss_changes":[1.6806379E-2,0E0,0E0],"parents":[2147483647,0,0],"right_children":[2,-1,-1],"split_conditions":[3.825E3,2.0249011E-2,-1.732784E-2],"split_indices":[3,0,0],"split_type":[0,0,0],"sum_hessian":[2.2942252E0,1.1606032E0,1.1336222E0],"tree_param":{"num_deleted":"0","num_feature":"9","num_nodes":"3","size_leaf_vector":"1"}},{"base_weights":[-2.0100474E-2],"categories":[],"categories_nodes":[],"categories_segments":[],"categories_sizes":[],"default_left":[0],"id":125,"left_children":[-1],"loss_changes":[0E0],"parents":[2147483647],"right_children":[-1],"split_conditions":[-6.030143E-3],"split_indices":[0],"split_type":[0],"sum_hessian":[1.4999217E0],"tree_param":{"num_deleted":"0","num_feature":"9","num_nodes":"1","size_leaf_vector":"1"}},{"base_weights":[9.028236E-3,-2.7631575E-2,2.8505888E-2],"categories":[],"categories_nodes":[],"categories_segments":[],"categories_sizes":[],"default_left":[0,0,0],"id":126,"left_children":[1,-1,-1],"loss_changes":[3.8700785E-2,0E0,0E0],"parents":[2147483647,0,0],"right_children":[2,-1,-1],"split_conditions":[1.75E1,-2.7631575E-2,2.8505888E-2],"split_indices":[1,0,0],"split_type":[0,0,0],"sum_hessian":[2.443754E0,1.0903304E0,1.3534236E0],"tree_param":{"num_deleted":"0","num_feature":"9","num_nodes":"3","size_leaf_vector":"1"}},{"base_weights":[6.521414E-3,1.9017871E-2,-1.7971946E-2],"categories":[],"categories_nodes":[],"categories_segments":[],"categories_sizes":[],"default_left":[0,0,0],"id":127,"left_children":[1,-1,-1],"loss_changes":[1.6146922E-2,0E0,0E0],"parents":[2147483647,0,0],"right_children":[2,-1,-1],"split_conditions":[3.975E3,1.9017871E-2,-1.7971946E-2],"split_indices":[3,0,0],"split_type":[0,0,0],"sum_hessian":[2.268861E0,1.2469703E0,1.0218908E0],"tree_param":{"num_deleted":"0","num_feature":"9","num_nodes":"3","size_leaf_vector":"1"}},{"base_weights":[-2.1088576E-2],"categories":[],"categories_nodes":[],"categories_segments":[],"categories_sizes":[],"default_left":[0],"id":128,"left_children":[-1],"loss_changes":[0E0],"parents":[2147483647],"right_children":[-1],"split_conditions":[-6.326573E-3],"split_indices":[0],"split_type":[0],"sum_hessian":[1.4852264E0],"tree_param":{"num_deleted":"0","num_feature":"9","num_nodes":"1","size_leaf_vector":"1"}},{"base_weights":[8.873186E-3,3.0142717E-2,-2.8539065E-2],"categories":[],"categories_nodes":[],"categories_segments":[],"categories_sizes":[],"default_left":[0,0,0],"id":129,"left_children":[1,-1,-1],"loss_changes":[4.2179625E-2,0E0,0E0],"parents":[2147483647,0,0],"right_children":[2,-1,-1],"split_conditions":[4.33E1,3.0142717E-2,-2.8539065E-2],"split_indices":[0,0,0],"split_type":[0,0,0],"sum_hessian":[2.4241035E0,1.3069271E0,1.1171765E0],"tree_param":{"num_deleted":"0","num_feature":"9","num_nodes":"3","size_leaf_vector":"1"}},{"base_weights":[6.7335404E-3,-1.6212627E-2,2.1597164E-2],"categories":[],"categories_nodes":[],"categories_segments":[],"categories_sizes":[],"default_left":[0,0,0],"id":130,"left_children":[1,-1,-1],"loss_changes":[1.6822167E-2,0E0,0E0],"parents":[2147483647,0,0],"right_children":[2,-1,-1],"split_conditions":[4.51E1,-1.6212627E-2,2.1597164E-2],"split_indices":[0,0,0],"split_type":[0,0,0],"sum_hessian":[2.2605982E0,1.2594736E0,1.0011245E0],"tree_param":{"num_deleted":"0","num_feature":"9","num_nodes":"3","size_leaf_vector":"1"}},{"base_weights":[-2.1246992E-2],"categories":[],"categories_nodes":[],"categories_segments":[],"categories_sizes":[],"default_left":[0],"id":131,"left_children":[-1],"loss_changes":[0E0],"parents":[2147483647],"right_children":[-1],"split_conditions":[-6.374098E-3],"split_indices":[0],"split_type":[0],"sum_hessian":[1.4633363E0],"tree_param":{"num_deleted":"0","num_feature":"9","num_nodes":"1","size_leaf_vector":"1"}},{"base_weights":[5.763517E-3,-2.7037987E-2,2.6864786E-2],"categories":[],"categories_nodes":[],"categories_segments":[],"categories_sizes":[],"default_left":[0,0,0],"id":132,"left_children":[1,-1,-1],"loss_changes":[3.5257988E-2,0E0,0E0],"parents":[2147483647,0,0],"right_children":[2,-1,-1],"split_conditions":[1.75E1,-2.7037987E-2,2.6864786E-2],"split_indices":[1,0,0],"split_type":[0,0,0],"sum_hessian":[2.383924E0,1.0763716E0,1.3075523E0],"tree_param":{"num_deleted":"0","num_feature":"9","num_nodes":"3","size_leaf_vector":"1"}},{"base_weights":[7.660612E-3,1.9273072E-2,-1.7617688E-2],"categories":[],"categories_nodes":[],"categories_segments":[],"categories_sizes":[],"default_left":[0,0,0],"id":133,"left_children":[1,-1,-1],"loss_changes":[1.5909707E-2,0E0,0E0],"parents":[2147483647,0,0],"right_children":[2,-1,-1],"split_conditions":[3.975E3,1.9273072E-2,-1.7617688E-2],"split_indices":[3,0,0],"split_type":[0,0,0],"sum_hessian":[2.2310696E0,1.2218913E0,1.0091784E0],"tree_param":{"num_deleted":"0","num_feature":"9","num_nodes":"3","size_leaf_vector":"1"}},{"base_weights":[-1.8027352E-2],"categories":[],"categories_nodes":[],"categories_segments":[],"categories_sizes":[],"default_left":[0],"id":134,"left_children":[-1],"loss_changes":[0E0],"parents":[2147483647],"right_children":[-1],"split_conditions":[-5.408206E-3],"split_indices":[0],"split_type":[0],"sum_hessian":[1.4550285E0],"tree_param":{"num_deleted":"0","num_feature":"9","num_nodes":"1","size_leaf_vector":"1"}},{"base_weights":[6.1181146E-3,3.1628475E-2,-2.4627578E-2],"categories":[],"categories_nodes":[],"categories_segments":[],"categories_sizes":[],"default_left":[0,0,0],"id":135,"left_children":[1,-1,-1],"loss_changes":[3.81442E-2,0E0,0E0],"parents":[2147483647,0,0],"right_children":[2,-1,-1],"split_conditions":[4.24E1,3.1628475E-2,-2.4627578E-2],"split_indices":[0,0,0],"split_type":[0,0,0],"sum_hessian":[2.3663116E0,1.0212992E0,1.3450123E0],"tree_param":{"num_deleted":"0","num_feature":"9","num_nodes":"3","size_leaf_vector":"1"}},{"base_weights":[7.5855283E-3,-1.5646974E-2,2.0005094E-2],"categories":[],"categories_nodes":[],"categories_segments":[],"categories_sizes":[],"default_left":[0,0,0],"id":136,"left_children":[1,-1,-1],"loss_changes":[1.4859146E-2,0E0,0E0],"parents":[2147483647,0,0],"right_children":[2,-1,-1],"split_conditions":[1.81E1,-1.5646974E-2,2.0005094E-2],"split_indices":[1,0,0],"split_type":[0,0,0],"sum_hessian":[2.2235339E0,1.1641529E0,1.0593809E0],"tree_param":{"num_deleted":"0","num_feature":"9","num_nodes":"3","size_leaf_vector":"1"}},{"base_weights":[-1.8503731E-2],"categories":[],"categories_nodes":[],"categories_segments":[],"categories_sizes":[],"default_left":[0],"id":137,"left_children":[-1],"loss_changes":[0E0],"parents":[2147483647],"right_children":[-1],"split_conditions":[-5.5511193E-3],"split_indices":[0],"split_type":[0],"sum_hessian":[1.4345869E0],"tree_param":{"num_deleted":"0","num_feature":"9","num_nodes":"1","size_leaf_vector":"1"}},{"base_weights":[6.368662E-3,-2.6171597E-2,2.6395623E-2],"categories":[],"categories_nodes":[],"categories_segments":[],"categories_sizes":[],"default_left":[0,0,0],"id":138,"left_children":[1,-1,-1],"loss_changes":[3.3184465E-2,0E0,0E0],"parents":[2147483647,0,0],"right_children":[2,-1,-1],"split_conditions":[1.75E1,-2.6171597E-2,2.6395623E-2],"split_indices":[1,0,0],"split_type":[0,0,0],"sum_hessian":[2.3388731E0,1.0573279E0,1.2815453E0],"tree_param":{"num_deleted":"0","num_feature":"9","num_nodes":"3","size_leaf_vector":"1"}},{"base_weights":[7.28073E-3,1.9519314E-2,-1.6233785E-2],"categories":[],"categories_nodes":[],"categories_segments":[],"categories_sizes":[],"default_left":[0,0,0],"id":139,"left_children":[1,-1,-1],"loss_changes":[1.4859141E-2,0E0,0E0],"parents":[2147483647,0,0],"right_children":[2,-1,-1],"split_conditions":[3.825E3,1.9519314E-2,-1.6233785E-2],"split_indices":[3,0,0],"split_type":[0,0,0],"sum_hessian":[2.1961205E0,1.1005157E0,1.0956048E0],"tree_param":{"num_deleted":"0","num_feature":"9","num_nodes":"3","size_leaf_vector":"1"}},{"base_weights":[-1.8417966E-2],"categories":[],"categories_nodes":[],"categories_segments":[],"categories_sizes":[],"default_left":[0],"id":140,"left_children":[-1],"loss_changes":[0E0],"parents":[2147483647],"right_children":[-1],"split_conditions":[-5.5253897E-3],"split_indices":[0],"split_type":[0],"sum_hessian":[1.4179142E0],"tree_param":{"num_deleted":"0","num_feature":"9","num_nodes":"1","size_leaf_vector":"1"}},{"base_weights":[6.4258603E-3,2.7593149E-2,-2.6860192E-2],"categories":[],"categories_nodes":[],"categories_segments":[],"categories_sizes":[],"default_left":[0,0,0],"id":141,"left_children":[1,-1,-1],"loss_changes":[3.5506357E-2,0E0,0E0],"parents":[2147483647,0,0],"right_children":[2,-1,-1],"split_conditions":[4.33E1,2.7593149E-2,-2.6860192E-2],"split_indices":[0,0,0],"split_type":[0,0,0],"sum_hessian":[2.3219218E0,1.2494766E0,1.0724452E0],"tree_param":{"num_deleted":"0","num_feature":"9","num_nodes":"3","size_leaf_vector":"1"}},{"base_weights":[7.500782E-3,-1.5269983E-2,1.954558E-2],"categories":[],"categories_nodes":[],"categories_segments":[],"categories_sizes":[],"default_left":[0,0,0],"id":142,"left_children":[1,-1,-1],"loss_changes":[1.405457E-2,0E0,0E0],"parents":[2147483647,0,0],"right_children":[2,-1,-1],"split_conditions":[1.81E1,-1.5269983E-2,1.954558E-2],"split_indices":[1,0,0],"split_type":[0,0,0],"sum_hessian":[2.1894145E0,1.1458106E0,1.043604E0],"tree_param":{"num_deleted":"0","num_feature":"9","num_nodes":"3","size_leaf_vector":"1"}},{"base_weights":[-1.8867262E-2],"categories":[],"categories_nodes":[],"categories_segments":[],"categories_sizes":[],"default_left":[0],"id":143,"left_children":[-1],"loss_changes":[0E0],"parents":[2147483647],"right_children":[-1],"split_conditions":[-5.6601786E-3],"split_indices":[0],"split_type":[0],"sum_hessian":[1.399287E0],"tree_param":{"num_deleted":"0","num_feature":"9","num_nodes":"1","size_leaf_vector":"1"}},{"base_weights":[5.6388867E-3,-2.5554776E-2,2.5694383E-2],"categories":[],"categories_nodes":[],"categories_segments":[],"categories_sizes":[],"default_left":[0,0,0],"id":144,"left_children":[1,-1,-1],"loss_changes":[3.1250164E-2,0E0,0E0],"parents":[2147483647,0,0],"right_children":[2,-1,-1],"split_conditions":[1.75E1,-2.5554776E-2,2.5694383E-2],"split_indices":[1,0,0],"split_type":[0,0,0],"sum_hessian":[2.2965405E0,1.045308E0,1.2512326E0],"tree_param":{"num_deleted":"0","num_feature":"9","num_nodes":"3","size_leaf_vector":"1"}},{"base_weights":[8.008285E-3,1.9118503E-2,-1.552981E-2],"categories":[],"categories_nodes":[],"categories_segments":[],"categories_sizes":[],"default_left":[0,0,0],"id":145,"left_children":[1,-1,-1],"loss_changes":[1.383627E-2,0E0,0E0],"parents":[2147483647,0,0],"right_children":[2,-1,-1],"split_conditions":[3.825E3,1.9118503E-2,-1.552981E-2],"split_indices":[3,0,0],"split_type":[0,0,0],"sum_hessian":[2.163759E0,1.0856217E0,1.0781373E0],"tree_param":{"num_deleted":"0","num_feature":"9","num_nodes":"3","size_leaf_vector":"1"}},{"base_weights":[-1.842773E-2],"categories":[],"categories_nodes":[],"categories_segments":[],"categories_sizes":[],"default_left":[0],"id":146,"left_children":[-1],"loss_changes":[0E0],"parents":[2147483647],"right_children":[-1],"split_conditions":[-5.528319E-3],"split_indices":[0],"split_type":[0],"sum_hessian":[1.3836056E0],"tree_param":{"num_deleted":"0","num_feature":"9","num_nodes":"1","size_leaf_vector":"1"}},{"base_weights":[5.7995925E-3,2.636881E-2,-2.585011E-2],"categories":[],"categories_nodes":[],"categories_segments":[],"categories_sizes":[],"default_left":[0,0,0],"id":147,"left_children":[1,-1,-1],"loss_changes":[3.2344133E-2,0E0,0E0],"parents":[2147483647,0,0],"right_children":[2,-1,-1],"split_conditions":[4.33E1,2.636881E-2,-2.585011E-2],"split_indices":[0,0,0],"split_type":[0,0,0],"sum_hessian":[2.280789E0,1.2284459E0,1.052343E0],"tree_param":{"num_deleted":"0","num_feature":"9","num_nodes":"3","size_leaf_vector":"1"}},{"base_weights":[8.0727255E-3,-1.4716178E-2,1.9291233E-2],"categories":[],"categories_nodes":[],"categories_segments":[],"categories_sizes":[],"default_left":[0,0,0],"id":148,"left_children":[1,-1,-1],"loss_changes":[1.32978605E-2,0E0,0E0],"parents":[2147483647,0,0],"right_children":[2,-1,-1],"split_conditions":[1.81E1,-1.4716178E-2,1.9291233E-2],"split_indices":[1,0,0],"split_type":[0,0,0],"sum_hessian":[2.1576936E0,1.133643E0,1.0240507E0],"tree_param":{"num_deleted":"0","num_feature":"9","num_nodes":"3","size_leaf_vector":"1"}},{"base_weights":[-1.8815123E-2],"categories":[],"categories_nodes":[],"categories_segments":[],"categories_sizes":[],"default_left":[0],"id":149,"left_children":[-1],"loss_changes":[0E0],"parents":[2147483647],"right_children":[-1],"split_conditions":[-5.644537E-3],"split_indices":[0],"split_type":[0],"sum_hessian":[1.3660654E0],"tree_param":{"num_deleted":"0","num_feature":"9","num_nodes":"1","size_leaf_vector":"1"}}]},"name":"gbtree"},"learner_model_param":{"base_score":"5E-1","boost_from_average":"1","num_class":"3","num_feature":"9","num_target":"1"},"objective":{"name":"multi:softmax","softmax_multiclass_param":{"num_class":"3"}}},"version":[3,0,2]}